tree
version=v4
num_class=1
num_tree_per_iteration=1
label_index=0
max_feature_idx=9
objective=binary sigmoid:1
feature_names=Age Gender EducationLevel ExperienceYears PreviousCompanies DistanceFromCompany InterviewScore SkillScore PersonalityScore RecruitmentStrategy
feature_infos=[20:50] -1:0:1 -1:1:0:2:3 [0:15] [1:5] [1.0313758314228083:50.992462224320008] [0:100] [0:100] [0:100] -1:1:0:2
tree_sizes=768 768 683 895 767 681 684 769 875 785 682 773 880 873 671 882 884 779 572 798 796 694 487 382 486 485 486 470 383 365 365 385 489 467 486 489 464 483 488 484 484 366 383 443 468 366 486 382 364 365 365 470 381 467 366 468 367 466 382 467 374 470 356 490 467 383 488 489 486 355 465 486 373 366 450 365 383 467 469 384 488 488 439 450 383 487 367 489 447 366 471 485 383 475 384 469 384 489 489 383 460 469 486 383 490 450 465 467 490 464 365 448 466 471 474 468 367 467 488 488 487 386 468 477 469 491 361 368 487 488 467 367 385 365 487 385 385 364 487 468 470 486 385 467 471 367 468 468 469 489 366 488 469 469 449 470 468 470 471 368 367 472 492 489 470 446 384 468 368 490 464 468 490 489 468 470 489 366 357 468 471 470 381 373 469 367 491 489 386 487 385 367 490 469 475 457 489 489 471 487 383 488 383 386 468 469 367 468 467 470 386 492 450 448 366 488 489 449 473 448 485 488 469 469 490 366 462 488 384 489 470 473 492 367 470 469 367 468 466 490 368 469 471 469 470 367 471 367 486 488 468 489 472 369 366 472 451 367 489 487 469 366 365 488 469 472 366 491 486 367 470 488 490 366 474 368 489 468 470 366 468 472 487 469 365 485 473 469 468 469 469 384 470 367 347 470 488 479 472 479 470 470 460 489 468 491 368 469 468 473 459 490 364 472 449 470 450 468 469 490 470 461 375 488 461 470 472 478 471 447 457 365 470 468 385 477 481 490 465 366 385 367 471 466 387 468 448 366 471 478 357 466 487 486 471 470 366 387 490 473 385 487 459 488 471 355 469 368 472 368 366 474 486 347 471 469 468 385 462 472 364 488 469 368 488 492 471 488 368 494 491 486 469 460 467 477 365 488 383 450 469 449 487 470 468 491 469 468 366 366 366 471 471 470 470 490 466 469 468 469 386 472 467 467 471 488 458 490 456 469 367 471 487 472 472 469 468 492 356 364 441 471 368 368 368 467 469 491 473 459 370 366 366 367 447 490 470 471 492 472 366 472 491 472 488 470 489 450 468 368 367 464 376 367 490 469 470 472 364 468 476 486 385 490 461 461 475 451 491 460 472 487 470 468 368 469 448 470 488 470 365 468 479 368 475 455 471 387 469 472 467 468 357 461 365 468 470 366 471 470 464 449 470 469 488 468 462 472 468 365 477 364 487 485 473 365 470 471 366 472 491 461 447 366 470 468 470 450 460 380 471 386 491 469 472 385 489 473 479 387 490 490 491 472 460 476 493 467 461 450 470 470 367 468 486 472 489 368 470 469 470 450 487 385 469 367 367 367 460 488 491 468 489 466 383 387 486 489 487 368 470 450 368 387 492 472 468 459 367 469 471 452 368 347 368 368 365 356 467 367 472 470 461 449 470 453 451 469 468 471 469 384 491 385 366 455 469 472 386 491 466 467 367 473 470 477 482 473 469 384 384 489 473 386 465 449 364 472 489 388 469 470 471 449 461 489 462 457 471 486 385 474 368 470 470 366 470 368 485 388 449 467 468 471 493 473 491 471 367 473 488 367 473 490 489 473 464 471 488 468 468 473 369 468 490 487 472 487 491 367 491 451 367 440 488 489 471 367 470 381 489 471 472 365 488 471 471 472 471 471 490 471 461 346 462 460 468 471 472 485 469 469 366 486 471 472 489 454 489 463 367 472 367 489 487 451 383 450 459 471 469 441 468 471 468 365 367 470 347 491 470 469 471 450 472 485 486 470 469 470 385 471 480 469 468 383 448 471 365 472 367 470 460 488 366 457 469 366 454 364 466 472 485 368 469 365 457 460 462 460 367 472 466 385 472 480 472 470 490 384 469 368 470 464 347 469 489 367 489 468 471 368 366 472 473 491 367 477 449 474 471 469 456 368 451 472 471 471 366 365 384 470 468 368 472 493 470 464 469 386 468 459 489 366 365 471 451 468 470 450 472

Tree=0
num_leaves=6
num_cat=2
split_feature=9 3 2 8 8
split_gain=379.928 36.1722 34.768 39.5268 2.90677
threshold=0 5.5000000000000009 1 58.500000000000007 66.500000000000014
decision_type=1 2 1 2 2
left_child=1 -1 3 -2 -4
right_child=2 -3 4 -5 -6
leaf_value=-0.75689182008897704 -0.83287315351503832 -0.68855728484261391 -0.85603118336720396 -0.75277233237654861 -0.83640496687436117
leaf_weight=29.090399980545044 30.373799979686737 45.988499969244003 87.912899941205978 21.603899985551834 41.710499972105026
leaf_count=136 142 215 411 101 195
internal_value=-0.800119 -0.714277 -0.835655 -0.800119 -0.846543
internal_weight=256.68 75.0789 181.601 51.9777 129.623
internal_count=1200 351 849 243 606
cat_boundaries=0 1 2
cat_threshold=1 12
is_linear=0
shrinkage=1


Tree=1
num_leaves=6
num_cat=0
split_feature=6 7 3 3 3
split_gain=56.979 43.3885 17.9996 12.3035 3.10463
threshold=74.500000000000014 49.500000000000007 5.5000000000000009 4.5000000000000009 6.5000000000000009
decision_type=2 2 2 2 2
left_child=1 4 -2 -3 -1
right_child=2 3 -4 -5 -6
leaf_value=-0.047551502816287693 0.0035350109631803795 -0.018138092213955289 0.053829677873755935 0.017261196854620187 -0.026302621140905525
leaf_weight=38.265930205583572 25.579394206404686 26.832124158740044 42.313204795122147 73.042326986789703 50.490222200751305
leaf_count=180 120 126 197 341 236
internal_value=0 -0.012878 0.0356027 0.00728252 -0.0360461
internal_weight=256.523 188.631 67.8926 99.8745 88.7562
internal_count=1200 883 317 467 416
is_linear=0
shrinkage=0.045426


Tree=2
num_leaves=5
num_cat=1
split_feature=9 7 7 3
split_gain=339.536 43.4081 13.1875 16.8411
threshold=0 49.500000000000007 50.500000000000007 5.5000000000000009
decision_type=1 2 2 2
left_child=1 -1 -2 -4
right_child=2 -3 3 -5
leaf_value=0.03939724869988015 -0.047749360076696161 0.11067123701237437 -0.049677318416950098 -0.0073752083454333263
leaf_weight=34.843785628676414 85.646856129169464 42.587883800268173 30.263434246182442 63.110258087515831
leaf_count=159 409 192 144 296
internal_value=0 0.0793362 -0.0344147 -0.0216351
internal_weight=256.452 77.4317 179.021 93.3737
internal_count=1200 351 849 440
cat_boundaries=0 1
cat_threshold=1
is_linear=0
shrinkage=0.045426


Tree=3
num_leaves=7
num_cat=1
split_feature=2 8 8 3 3 3
split_gain=62.9778 40.0304 16.3502 3.28005 2.39938 1.89463
threshold=0 61.500000000000007 60.500000000000007 5.5000000000000009 7.5000000000000009 5.5000000000000009
decision_type=1 2 2 2 2 2
left_child=1 4 3 -2 -1 -4
right_child=2 -3 5 -5 -6 -7
leaf_value=-0.0010922699267783967 -0.038157145307686005 0.076308237587160044 -0.0078783310498479805 -0.019077867446392244 0.018218294290431807 0.0073828777199164202
leaf_weight=21.804618239402771 39.257976517081261 30.883022338151932 25.301447182893753 71.340931832790375 23.009485930204391 44.355875119566917
leaf_count=103 188 141 120 334 107 207
internal_value=0 0.0322314 -0.0146299 -0.0263072 0.00784323 0.00118346
internal_weight=255.953 75.6971 180.256 110.599 44.8141 69.6573
internal_count=1200 351 849 522 210 327
cat_boundaries=0 1
cat_threshold=12
is_linear=0
shrinkage=0.045426


Tree=4
num_leaves=6
num_cat=1
split_feature=9 6 6 5 5
split_gain=305.483 25.9021 14.6214 0.770066 0.539087
threshold=0 71.500000000000014 72.500000000000014 28.365735711354265 30.258299926324334
decision_type=1 2 2 2 2
left_child=2 -2 3 -1 -3
right_child=1 4 -4 -5 -6
leaf_value=0.067048233399404411 -0.044794390644645625 -0.009528411263241476 0.10429099012658458 0.043426419086909689 0
leaf_weight=30.506450161337852 123.66089218854904 31.100037574768066 25.941813707351685 22.92595100402832 21.676332429051399
leaf_count=135 598 148 114 102 103
internal_value=0 -0.0333769 0.0738359 0.0579259 -0.00571013
internal_weight=255.811 176.437 79.3742 53.4324 52.7764
internal_count=1200 849 351 237 251
cat_boundaries=0 1
cat_threshold=1
is_linear=0
shrinkage=0.045426


Tree=5
num_leaves=5
num_cat=1
split_feature=9 8 3 3
split_gain=276.011 28.7298 25.79 19.549
threshold=0 60.500000000000007 5.5000000000000009 5.5000000000000009
decision_type=1 2 2 2
left_child=2 -2 -1 -3
right_child=1 3 -4 -5
leaf_value=0.033628785808333311 -0.047310533370066264 -0.044594200009878397 0.089687694084728792 0.0069846038219443492
leaf_weight=30.758820056915283 105.40502946078777 21.521194934844971 50.269829019904137 47.074936076998711
leaf_count=136 521 105 215 223
internal_value=0 -0.0323354 0.0690789 -0.00860537
internal_weight=255.03 174.001 81.0286 68.5961
internal_count=1200 849 351 328
cat_boundaries=0 1
cat_threshold=1
is_linear=0
shrinkage=0.045426


Tree=6
num_leaves=5
num_cat=1
split_feature=9 7 7 4
split_gain=249.986 36.1972 12.9851 2.59487
threshold=0 43.500000000000007 50.500000000000007 2.5000000000000004
decision_type=1 2 2 2
left_child=1 -1 -2 -4
right_child=2 -3 3 -5
leaf_value=0.024522621342042521 -0.044879198853849979 0.088947771604395237 -0.029517692648873238 -0.011203042833790798
leaf_weight=31.631047442555428 81.460669681429863 50.756675109267235 33.275239884853363 56.789953395724297
leaf_count=137 409 214 163 277
internal_value=0 0.0648621 -0.0313314 -0.0185147
internal_weight=253.914 82.3877 171.526 90.0652
internal_count=1200 351 849 440
cat_boundaries=0 1
cat_threshold=1
is_linear=0
shrinkage=0.045426


Tree=7
num_leaves=6
num_cat=2
split_feature=9 2 3 3 6
split_gain=227.029 33.3301 22.2119 20.576 4.77333
threshold=0 1 5.5000000000000009 7.5000000000000009 74.500000000000014
decision_type=1 1 2 2 2
left_child=2 3 -1 -2 -3
right_child=1 4 -4 -5 -6
leaf_value=0.028540816268627117 -0.027791050088552142 -0.05109078694040823 0.079872119364758298 0.030493767554516552 -0.02610291016023444
leaf_weight=31.572496429085732 21.92253777384758 88.677241370081902 51.93014857172966 28.006498903036118 30.579077988862991
leaf_count=136 109 455 215 134 151
internal_value=0 -0.0303617 0.0611014 0.00332467 -0.0416235
internal_weight=252.688 169.185 83.5026 49.929 119.256
internal_count=1200 849 351 243 606
cat_boundaries=0 1 2
cat_threshold=1 12
is_linear=0
shrinkage=0.045426


Tree=8
num_leaves=7
num_cat=2
split_feature=9 2 8 8 8 8
split_gain=206.665 31.3497 31.8983 12.1936 2.61532 0.587474
threshold=0 1 58.500000000000007 61.500000000000007 66.500000000000014 31.500000000000004
decision_type=1 1 2 2 2 2
left_child=3 2 -2 5 -3 -1
right_child=1 4 -4 -5 -6 -7
leaf_value=0.050056662440552437 -0.027081943251880028 -0.049971135290969422 0.045630567385449919 0.08060819971507624 -0.030638751813807777 0.029827905726988627
leaf_weight=26.975671127438545 28.204207107424736 78.16410006582737 21.793563663959503 33.500760152935982 38.607674837112427 23.915261223912239
leaf_count=112 142 411 101 139 195 100
internal_value=0 -0.0294361 0.00312935 0.0577302 -0.0405524 0.0415678
internal_weight=251.161 166.77 49.9978 84.3917 116.772 50.8909
internal_count=1200 849 243 351 606 212
cat_boundaries=0 1 2
cat_threshold=1 12
is_linear=0
shrinkage=0.045426


Tree=9
num_leaves=6
num_cat=1
split_feature=2 8 6 6 8
split_gain=50.112 29.0942 23.0346 15.951 8.6642
threshold=0 61.500000000000007 79.500000000000014 57.500000000000007 58.500000000000007
decision_type=1 2 2 2 2
left_child=1 3 4 -1 -2
right_child=2 -3 -4 -5 -6
leaf_value=-0.018331817279604312 -0.032772440544885637 0.064973881350583684 0.017875307636308263 0.035523259337095471 -0.0084540111387092325
leaf_weight=22.660341992974281 79.663515672087669 32.206481456756592 34.831153005361557 21.51707461476326 58.614046901464462
leaf_count=110 402 141 164 100 283
internal_value=0 0.0283668 -0.0135728 0.00690912 -0.0228147
internal_weight=249.493 76.3839 173.109 44.1774 138.278
internal_count=1200 351 849 210 685
cat_boundaries=0 1
cat_threshold=12
is_linear=0
shrinkage=0.045426


Tree=10
num_leaves=5
num_cat=1
split_feature=9 7 7 3
split_gain=188.1 32.0298 12.8049 15.7786
threshold=0 49.500000000000007 50.500000000000007 5.5000000000000009
decision_type=1 2 2 2
left_child=1 -1 -2 -4
right_child=2 -3 3 -5
leaf_value=0.021753078855873673 -0.042380053504457928 0.079952878254403087 -0.044280337150003179 -0.0017438465643732819
leaf_weight=37.979462146759033 77.192006155848503 47.11829885840416 27.27007719874382 59.474046692252159
leaf_count=159 409 192 144 296
internal_value=0 0.0546035 -0.0285684 -0.0156977
internal_weight=249.034 85.0978 163.936 86.7441
internal_count=1200 351 849 440
cat_boundaries=0 1
cat_threshold=1
is_linear=0
shrinkage=0.045426


Tree=11
num_leaves=6
num_cat=2
split_feature=9 2 8 3 6
split_gain=171.82 27.8509 26.5911 19.8098 4.64438
threshold=0 1 58.500000000000007 5.5000000000000009 74.500000000000014
decision_type=1 1 2 2 2
left_child=3 2 -2 -1 -3
right_child=1 4 -4 -5 -6
leaf_value=0.021656174770395421 -0.02541288273559027 -0.048105286658251929 0.040815400808640205 0.069314581496315336 -0.02303446984884704
leaf_weight=32.501371130347252 27.516522854566574 82.453771561384201 22.395352452993393 53.118567377328873 29.337468937039375
leaf_count=136 142 455 101 215 151
internal_value=0 -0.0276896 0.00286171 0.0518296 -0.0385336
internal_weight=247.323 161.703 49.9119 85.6199 111.791
internal_count=1200 849 243 351 606
cat_boundaries=0 1 2
cat_threshold=1 12
is_linear=0
shrinkage=0.045426


Tree=12
num_leaves=7
num_cat=2
split_feature=2 7 7 3 3 1
split_gain=43.248 27.6405 20.2686 2.54497 2.14224 0.590684
threshold=0 59.500000000000007 50.500000000000007 5.5000000000000009 7.5000000000000009 1
decision_type=1 2 2 2 2 1
left_child=1 4 5 -4 -1 -2
right_child=2 -3 3 -5 -6 -7
leaf_value=-0.0019071249659071633 -0.023113207147108381 0.062834019591400586 -0.009795536239047704 0.0059854593587936019 0.01639260898119712 -0.03789529407108571
leaf_weight=23.573384344577789 38.600984796881676 30.898320198059082 31.686288401484489 61.14005072414875 22.029812842607498 37.339263886213303
leaf_count=112 199 138 159 296 101 195
internal_value=0 0.0261972 -0.0128974 0.000102273 0.00596784 -0.0310449
internal_weight=245.268 76.5015 168.767 92.8263 45.6032 75.9402
internal_count=1200 351 849 455 213 394
cat_boundaries=0 1 2
cat_threshold=12 1
is_linear=0
shrinkage=0.045426


Tree=13
num_leaves=7
num_cat=0
split_feature=6 8 8 8 5 5
split_gain=42.0766 26.3376 15.9623 2.24151 1.57938 1.01428
threshold=71.500000000000014 60.500000000000007 59.500000000000007 73.500000000000014 36.504039971353656 22.293597281408747
decision_type=2 2 2 2 2 2
left_child=1 4 5 -3 -1 -2
right_child=2 3 -4 -5 -6 -7
leaf_value=-0.023598668033131844 0.018434443817986902 -0.0033465963960740927 0.054621418762583751 0.012671385387345562 -0.041691319867929087 0.0026660413599523015
leaf_weight=70.28279472887516 21.191073924303055 22.070573404431343 28.698033198714256 50.163691058754921 24.548020035028458 27.874621316790581
leaf_count=363 100 107 133 234 129 134
internal_value=0 -0.0130056 0.0274078 0.00715333 -0.0288248 0.0104381
internal_weight=244.829 167.065 77.7637 72.2343 94.8308 49.0657
internal_count=1200 833 367 341 492 234
is_linear=0
shrinkage=0.045426


Tree=14
num_leaves=5
num_cat=2
split_feature=9 2 5 5
split_gain=157.529 23.9574 3.23399 2.56638
threshold=0 1 34.357438828871885 31.303496187599684
decision_type=1 1 2 2
left_child=2 3 -1 -2
right_child=1 -3 -4 -5
leaf_value=0.056732925307760348 -0.0063466229773635778 -0.037266402705095035 0.031931218174818803 0.013809111153049003
leaf_weight=58.31989660859108 27.720522090792656 108.39686420559883 27.428419083356857 22.592109754681587
leaf_count=238 135 606 113 108
internal_value=0 -0.0269464 0.0494051 0.0015188
internal_weight=244.458 158.709 85.7483 50.3126
internal_count=1200 849 351 243
cat_boundaries=0 1 2
cat_threshold=1 12
is_linear=0
shrinkage=0.045426


Tree=15
num_leaves=7
num_cat=0
split_feature=6 8 8 3 3 3
split_gain=38.4928 24.2236 14.4175 5.52408 4.55184 1.47357
threshold=71.500000000000014 60.500000000000007 59.500000000000007 6.5000000000000009 5.5000000000000009 7.5000000000000009
decision_type=2 2 2 2 2 2
left_child=1 4 5 -3 -1 -2
right_child=2 3 -4 -5 -6 -7
leaf_value=-0.042959371147076694 0.00029503985477065858 -0.0075670175705757946 0.051807041265472871 0.017316887525159849 -0.01914721843312614 0.018117741828745822
leaf_weight=32.529955834150314 25.400563761591911 29.04498565196991 28.929243877530098 42.882075771689415 60.440526306629181 23.499392464756966
leaf_count=179 122 140 133 201 313 112
internal_value=-2.52674e-05 -0.0126377 0.0260846 0.00664407 -0.0280283 0.00981797
internal_weight=242.727 164.898 77.8292 71.9271 92.9705 48.9
internal_count=1200 833 367 341 492 234
is_linear=0
shrinkage=0.045426


Tree=16
num_leaves=7
num_cat=0
split_feature=6 8 8 3 3 3
split_gain=35.1265 22.4281 12.7393 5.02516 4.33664 1.31187
threshold=71.500000000000014 60.500000000000007 59.500000000000007 6.5000000000000009 5.5000000000000009 7.5000000000000009
decision_type=2 2 2 2 2 2
left_child=1 4 5 -3 -1 -2
right_child=2 3 -4 -5 -6 -7
leaf_value=-0.041884233394462435 0.00028169735636288264 -0.0072435501085303371 0.048781721827661106 0.016453493376701215 -0.018421353742274424 0.017206439749223919
leaf_weight=31.868959963321686 25.402927294373512 28.972802057862282 29.328259944915771 43.085921391844749 59.985583275556564 23.62570433318615
leaf_count=179 122 140 133 201 313 112
internal_value=-1.2614e-05 -0.0121567 0.0247849 0.00630185 -0.0271161 0.00939117
internal_weight=242.27 163.913 78.3569 72.0587 91.8545 49.0286
internal_count=1200 833 367 341 492 234
is_linear=0
shrinkage=0.045426


Tree=17
num_leaves=6
num_cat=0
split_feature=7 6 6 8 8
split_gain=36.1425 19.9221 18.1749 11.6877 8.42419
threshold=50.500000000000007 70.500000000000014 75.500000000000014 60.500000000000007 75.500000000000014
decision_type=2 2 2 2 2
left_child=2 3 4 -2 -1
right_child=1 -3 -4 -5 -6
leaf_value=-0.03971442927170038 -0.012309555482819637 0.040990974117581236 0.0097395951610583769 0.020902367106620807 -0.0046247292740246512
leaf_weight=58.48402763903141 45.774366706609726 43.888287708163261 30.239118605852127 40.655172184109688 22.72932180762291
leaf_count=323 239 202 140 187 109
internal_value=-1.30799e-08 0.0160446 -0.0191635 0.00279835 -0.0304814
internal_weight=241.77 130.318 111.452 86.4295 81.2133
internal_count=1200 628 572 426 432
is_linear=0
shrinkage=0.045426


Tree=18
num_leaves=4
num_cat=2
split_feature=9 2 4
split_gain=144.985 22.6669 0.367782
threshold=0 1 3.5000000000000004
decision_type=1 1 2
left_child=-1 2 -2
right_child=1 -3 -4
leaf_value=0.047252306324040851 -0.00015097232932479265 -0.036507471784071564 0.0066402076712176001
leaf_weight=85.575878575444221 29.442050337791443 105.66968977451324 20.46892112493515
leaf_count=351 143 606 100
internal_value=0 -0.0263011 0.00145017
internal_weight=241.157 155.581 49.911
internal_count=1200 849 243
cat_boundaries=0 1 2
cat_threshold=1 12
is_linear=0
shrinkage=0.045426


Tree=19
num_leaves=6
num_cat=1
split_feature=9 6 3 3 6
split_gain=132.943 18.6504 16.8586 10.8878 0.427587
threshold=0 71.500000000000014 5.5000000000000009 7.5000000000000009 22.500000000000004
decision_type=1 2 2 2 2
left_child=2 4 -1 -3 -2
right_child=1 3 -4 -5 -6
leaf_value=0.017266545619986303 -0.026159550448544705 -0.02584279845113422 0.061140356523642012 0.016365947031286479 -0.040363368377949141
leaf_weight=32.794587254524231 31.037804469466209 22.647567495703697 53.039373025298119 27.461845561861992 72.416603952646255
leaf_count=136 180 118 215 133 418
internal_value=-6.60816e-05 -0.0255563 0.0449712 -0.00182954 -0.036589
internal_weight=239.398 153.564 85.834 50.1094 103.454
internal_count=1200 849 351 251 598
cat_boundaries=0 1
cat_threshold=1
is_linear=0
shrinkage=0.045426


Tree=20
num_leaves=6
num_cat=1
split_feature=2 6 6 3 5
split_gain=35.6274 18.7671 14.5241 3.18805 3.05808
threshold=0 71.500000000000014 79.500000000000014 7.5000000000000009 38.456101066506015
decision_type=1 2 2 2 2
left_child=1 3 4 -1 -2
right_child=2 -3 -4 -5 -6
leaf_value=-0.0010317083697662386 -0.015299753306492574 0.05931901411876421 0.012290395227514288 0.02011232226412641 -0.034095293864359798
leaf_weight=22.78920990228653 96.540093183517456 24.88989494740963 34.619387865066528 28.147899612784386 30.345367938280106
leaf_count=112 519 109 164 130 166
internal_value=-6.26349e-05 0.0236303 -0.0121881 0.00979088 -0.0201909
internal_weight=237.332 75.827 161.505 50.9371 126.885
internal_count=1200 351 849 242 685
cat_boundaries=0 1
cat_threshold=12
is_linear=0
shrinkage=0.045426


Tree=21
num_leaves=5
num_cat=1
split_feature=9 3 3 3
split_gain=122.207 15.2481 8.58618 1.50095
threshold=0 5.5000000000000009 5.5000000000000009 9.5000000000000018
decision_type=1 2 2 2
left_child=1 -1 -2 -4
right_child=2 -3 3 -5
leaf_value=0.016614086713668895 -0.041068567478215023 0.058483163027777833 -0.0075119731538933277 -0.021326549201547019
leaf_weight=32.817377641797066 49.067638203501701 52.871170356869698 39.092367440462112 62.933485478162766
leaf_count=136 295 215 212 342
internal_value=-5.3976e-05 0.04304 -0.0248142 -0.0164986
internal_weight=236.782 85.6885 151.093 102.026
internal_count=1200 351 849 554
cat_boundaries=0 1
cat_threshold=1
is_linear=0
shrinkage=0.045426


Tree=22
num_leaves=3
num_cat=1
split_feature=9 7
split_gain=101.04 9.96747
threshold=0 55.500000000000007
decision_type=1 2
left_child=-1 -2
right_child=1 -3
leaf_value=0.036198446702411138 -0.036681185315374856 -0.011454088742441536
leaf_weight=91.835742741823196 73.754458352923393 69.951018035411835
leaf_count=159 86 115
internal_value=-0.000781863 -0.0247445
internal_weight=235.541 143.705
internal_count=360 201
cat_boundaries=0 1
cat_threshold=1
is_linear=0
shrinkage=0.045426


Tree=23
num_leaves=2
num_cat=1
split_feature=9
split_gain=170.098
threshold=0
decision_type=1
left_child=-1
right_child=-2
leaf_value=0.055896222960539664 -0.02578435375794581
leaf_weight=80.696603417396545 150.11528761684895
leaf_count=155 207
internal_value=0.00259578
internal_weight=230.812
internal_count=362
cat_boundaries=0 1
cat_threshold=1
is_linear=0
shrinkage=0.045426


Tree=24
num_leaves=3
num_cat=1
split_feature=9 6
split_gain=106.343 12.065
threshold=0 48.500000000000007
decision_type=1 2
left_child=-1 -2
right_child=1 -3
leaf_value=0.039549744560432781 -0.038108413219159629 -0.011197402469402104
leaf_weight=79.729854896664619 76.717371255159378 73.687997594475746
leaf_count=156 88 121
internal_value=-0.00259231 -0.0252524
internal_weight=230.135 150.405
internal_count=365 209
cat_boundaries=0 1
cat_threshold=1
is_linear=0
shrinkage=0.045426


Tree=25
num_leaves=3
num_cat=1
split_feature=9 7
split_gain=68.5791 13.7976
threshold=0 50.500000000000007
decision_type=1 2
left_child=-1 -2
right_child=1 -3
leaf_value=0.03558286183733101 -0.029874665750534522 -0.00090770452786277786
leaf_weight=87.150251165032387 69.934969171881676 72.319907158613205
leaf_count=154 77 127
internal_value=0.003729 -0.0154855
internal_weight=229.405 142.255
internal_count=358 204
cat_boundaries=0 1
cat_threshold=1
is_linear=0
shrinkage=0.045426


Tree=26
num_leaves=3
num_cat=1
split_feature=9 7
split_gain=123.87 13.3171
threshold=0 52.500000000000007
decision_type=1 2
left_child=-1 -2
right_child=1 -3
leaf_value=0.046937191602717518 -0.036445670547936647 -0.0073651427887960206
leaf_weight=86.636383041739464 69.050362408161163 70.415266126394272
leaf_count=154 83 121
internal_value=0.00415848 -0.0221146
internal_weight=226.102 139.466
internal_count=358 204
cat_boundaries=0 1
cat_threshold=1
is_linear=0
shrinkage=0.045426


Tree=27
num_leaves=3
num_cat=0
split_feature=8 7
split_gain=23.3098 8.61325
threshold=66.500000000000014 57.500000000000007
decision_type=2 2
left_child=1 -1
right_child=-2 -3
leaf_value=-0.030701540880388994 0.010220972731781731 -0.0073288510771257987
leaf_weight=73.05316025018692 84.630122303962708 70.189438626170158
leaf_count=106 152 101
internal_value=-0.00831814 -0.0195873
internal_weight=227.873 143.243
internal_count=359 207
is_linear=0
shrinkage=0.045426


Tree=28
num_leaves=2
num_cat=1
split_feature=2
split_gain=78.4077
threshold=0
decision_type=1
left_child=-1
right_child=-2
leaf_value=0.03187212378202698 -0.022772336621750745
leaf_weight=73.265363126993179 144.23662100732327
leaf_count=134 224
internal_value=-0.0037284
internal_weight=217.502
internal_count=358
cat_boundaries=0 1
cat_threshold=12
is_linear=0
shrinkage=0.045426


Tree=29
num_leaves=2
num_cat=0
split_feature=7
split_gain=44.3745
threshold=51.500000000000007
decision_type=2
left_child=-1
right_child=-2
leaf_value=-0.013933974019043978 0.025917339895054015
leaf_weight=106.32950049638748 123.59650129079819
leaf_count=164 194
internal_value=0.00729387
internal_weight=229.926
internal_count=358
is_linear=0
shrinkage=0.045426


Tree=30
num_leaves=2
num_cat=0
split_feature=8
split_gain=68.2598
threshold=60.500000000000007
decision_type=2
left_child=-1
right_child=-2
leaf_value=-0.02242123892704647 0.029039749961659117
leaf_weight=133.83234623074532 87.851261988282204
leaf_count=182 176
internal_value=-0.00181649
internal_weight=221.684
internal_count=358
is_linear=0
shrinkage=0.045426


Tree=31
num_leaves=2
num_cat=1
split_feature=9
split_gain=65.2471
threshold=0
decision_type=1
left_child=-1
right_child=-2
leaf_value=0.030557348409145327 -0.019709078502235071
leaf_weight=86.643823936581612 137.77384212613106
leaf_count=156 202
internal_value=-9.15855e-05
internal_weight=224.418
internal_count=358
cat_boundaries=0 1
cat_threshold=1
is_linear=0
shrinkage=0.045426


Tree=32
num_leaves=3
num_cat=1
split_feature=2 3
split_gain=47.2903 4.14034
threshold=0 7.5000000000000009
decision_type=1 2
left_child=-1 -2
right_child=1 -3
leaf_value=0.023866585892710589 -0.029403515528458678 -0.012664266628385105
leaf_weight=67.801637470722198 67.948512136936188 82.514909833669662
leaf_count=130 119 109
internal_value=-0.00544369 -0.0192699
internal_weight=218.265 150.463
internal_count=358 228
cat_boundaries=0 1
cat_threshold=12
is_linear=0
shrinkage=0.045426


Tree=33
num_leaves=3
num_cat=0
split_feature=7 8
split_gain=50.9388 13.8947
threshold=44.500000000000007 55.500000000000007
decision_type=2 2
left_child=-1 -2
right_child=1 -3
leaf_value=-0.028026180609647369 5.473619252299669e-07 0.032336383185963637
leaf_weight=99.748975872993469 58.922032535076141 56.217781320214272
leaf_count=150 94 116
internal_value=-0.00412038 0.0162064
internal_weight=214.889 115.14
internal_count=360 210
is_linear=0
shrinkage=0.045426


Tree=34
num_leaves=3
num_cat=1
split_feature=6 2
split_gain=66.4478 28.4134
threshold=74.500000000000014 0
decision_type=2 1
left_child=1 -1
right_child=-2 -3
leaf_value=-0.026510333121324205 0.043220864149164588 0.010118511752589501
leaf_weight=80.748945489525795 71.346392214298248 76.307738065719604
leaf_count=116 119 124
internal_value=0.0068059 -0.00947554
internal_weight=228.403 157.057
internal_count=359 240
cat_boundaries=0 1
cat_threshold=2
is_linear=0
shrinkage=0.045426


Tree=35
num_leaves=3
num_cat=1
split_feature=6 1
split_gain=68.8388 10.2536
threshold=70.500000000000014 0
decision_type=2 1
left_child=1 -1
right_child=-2 -3
leaf_value=-0.0073172651441759436 0.036018346261694985 -0.031805763320804668
leaf_weight=76.373869821429253 64.141665682196617 76.830780148506165
leaf_count=111 125 122
internal_value=-0.00318487 -0.0199153
internal_weight=217.346 153.205
internal_count=358 233
cat_boundaries=0 1
cat_threshold=1
is_linear=0
shrinkage=0.045426


Tree=36
num_leaves=3
num_cat=0
split_feature=7 0
split_gain=40.1085 3.4769
threshold=43.500000000000007 32.500000000000007
decision_type=2 2
left_child=-1 -2
right_child=1 -3
leaf_value=-0.016175401454751697 0.013292556311659761 0.030049403573464913
leaf_weight=91.760016575455666 61.309908881783485 71.699687242507935
leaf_count=138 103 119
internal_value=0.00662297 0.0226927
internal_weight=224.77 133.01
internal_count=360 222
is_linear=0
shrinkage=0.045426


Tree=37
num_leaves=3
num_cat=1
split_feature=9 6
split_gain=59.8249 4.74039
threshold=0 53.500000000000007
decision_type=1 2
left_child=-1 -2
right_child=1 -3
leaf_value=0.026703335683139071 -0.030171480440806558 -0.011913621788949644
leaf_weight=85.334928959608078 70.512194223701954 70.55315175652504
leaf_count=157 86 117
internal_value=-0.0030535 -0.0213862
internal_weight=226.4 141.065
internal_count=360 203
cat_boundaries=0 1
cat_threshold=1
is_linear=0
shrinkage=0.045426


Tree=38
num_leaves=3
num_cat=1
split_feature=9 3
split_gain=68.966 13.6011
threshold=0 7.5000000000000009
decision_type=1 2
left_child=-1 -2
right_child=1 -3
leaf_value=0.031286938366022338 -0.034887760188859133 -0.0052502429861146721
leaf_weight=86.628709241747856 68.480335146188736 67.723803877830505
leaf_count=158 78 122
internal_value=-0.000160583 -0.0205087
internal_weight=222.833 136.204
internal_count=358 200
cat_boundaries=0 1
cat_threshold=1
is_linear=0
shrinkage=0.045426


Tree=39
num_leaves=3
num_cat=1
split_feature=9 3
split_gain=99.759 0.404146
threshold=0 9.5000000000000018
decision_type=1 2
left_child=-1 -2
right_child=1 -3
leaf_value=0.041848324922224046 -0.016495191456194422 -0.025484351773407455
leaf_weight=81.740535646677017 70.851300567388535 68.646966204047203
leaf_count=155 107 96
internal_value=0.0018595 -0.021269
internal_weight=221.239 139.498
internal_count=358 203
cat_boundaries=0 1
cat_threshold=1
is_linear=0
shrinkage=0.045426


Tree=40
num_leaves=3
num_cat=1
split_feature=9 7
split_gain=64.901 14.1562
threshold=0 52.500000000000007
decision_type=1 2
left_child=-1 -2
right_child=1 -3
leaf_value=0.027642868609094113 -0.03908845887778515 -0.0093984179070551125
leaf_weight=75.63994012773037 69.711375743150711 72.94771982729435
leaf_count=152 82 124
internal_value=-0.00605612 -0.0242532
internal_weight=218.299 142.659
internal_count=358 206
cat_boundaries=0 1
cat_threshold=1
is_linear=0
shrinkage=0.045426


Tree=41
num_leaves=2
num_cat=0
split_feature=3
split_gain=70.0331
threshold=7.5000000000000009
decision_type=2
left_child=-1
right_child=-2
leaf_value=-0.028812622191106575 0.022685643212320587
leaf_weight=106.68862617015839 110.67888589203358
leaf_count=169 189
internal_value=-0.00238467
internal_weight=217.368
internal_count=358
is_linear=0
shrinkage=0.045426


Tree=42
num_leaves=2
num_cat=1
split_feature=9
split_gain=69.7615
threshold=0
decision_type=1
left_child=-1
right_child=-2
leaf_value=0.035558377319544379 -0.017032352751025086
leaf_weight=87.739689975976944 126.57493019104004
leaf_count=161 197
internal_value=0.00429715
internal_weight=214.315
internal_count=358
cat_boundaries=0 1
cat_threshold=1
is_linear=0
shrinkage=0.045426


Tree=43
num_leaves=3
num_cat=0
split_feature=7 3
split_gain=24.6769 13.9754
threshold=37.500000000000007 7.5000000000000009
decision_type=2 2
left_child=-1 -2
right_child=1 -3
leaf_value=-0.01750850655610775 0 0.028823560316560148
leaf_weight=65.418797552585602 66.236287251114845 78.74478517472744
leaf_count=132 105 121
internal_value=0.0052949 0.0159055
internal_weight=210.4 144.981
internal_count=358 226
is_linear=0
shrinkage=0.045426


Tree=44
num_leaves=3
num_cat=0
split_feature=6 7
split_gain=34.9474 25.6333
threshold=71.500000000000014 64.500000000000014
decision_type=2 2
left_child=1 -1
right_child=-2 -3
leaf_value=-0.026681966803061258 0.029954952647475597 0.011509377936505177
leaf_weight=79.930571973323822 68.359629064798355 64.183626189827919
leaf_count=138 122 98
internal_value=0.00308581 -0.00936429
internal_weight=212.474 144.114
internal_count=358 236
is_linear=0
shrinkage=0.045426


Tree=45
num_leaves=2
num_cat=0
split_feature=8
split_gain=43.1148
threshold=61.500000000000007
decision_type=2
left_child=-1
right_child=-2
leaf_value=-0.018355381737381542 0.024064366312574418
leaf_weight=130.59710136055946 79.046004310250282
leaf_count=193 165
internal_value=-0.00213812
internal_weight=209.643
internal_count=358
is_linear=0
shrinkage=0.045426


Tree=46
num_leaves=3
num_cat=1
split_feature=9 7
split_gain=34.4274 4.41756
threshold=0 56.500000000000007
decision_type=1 2
left_child=-1 -2
right_child=1 -3
leaf_value=0.018336166114763557 -0.02843390107876137 -0.010379590862578232
leaf_weight=76.243169203400612 66.672319024801254 67.421813517808914
leaf_count=154 90 114
internal_value=-0.00570513 -0.0197186
internal_weight=210.337 134.094
internal_count=358 204
cat_boundaries=0 1
cat_threshold=1
is_linear=0
shrinkage=0.045426


Tree=47
num_leaves=2
num_cat=1
split_feature=9
split_gain=47.3479
threshold=0
decision_type=1
left_child=-1
right_child=-2
leaf_value=0.026528123628677607 -0.016538474323448835
leaf_weight=95.540779933333397 116.3357055336237
leaf_count=166 192
internal_value=0.00267272
internal_weight=211.876
internal_count=358
cat_boundaries=0 1
cat_threshold=1
is_linear=0
shrinkage=0.045426


Tree=48
num_leaves=2
num_cat=0
split_feature=7
split_gain=45.5244
threshold=50.500000000000007
decision_type=2
left_child=-1
right_child=-2
leaf_value=-0.02785332298120512 0.014726435999463104
leaf_weight=99.270147129893303 106.8028714582324
leaf_count=174 184
internal_value=-0.00557085
internal_weight=206.073
internal_count=358
is_linear=0
shrinkage=0.045426


Tree=49
num_leaves=2
num_cat=0
split_feature=8
split_gain=46.5697
threshold=61.500000000000007
decision_type=2
left_child=-1
right_child=-2
leaf_value=-0.024196697524328781 0.019268137482264892
leaf_weight=112.01664015650749 92.19081349670887
leaf_count=185 173
internal_value=-0.00435223
internal_weight=204.207
internal_count=358
is_linear=0
shrinkage=0.045426


Tree=50
num_leaves=2
num_cat=0
split_feature=7
split_gain=68.8144
threshold=49.500000000000007
decision_type=2
left_child=-1
right_child=-2
leaf_value=-0.029655192384440546 0.02341187958794478
leaf_weight=92.881148621439934 109.78904724866152
leaf_count=172 186
internal_value=-0.000688477
internal_weight=202.67
internal_count=358
is_linear=0
shrinkage=0.045426


Tree=51
num_leaves=3
num_cat=0
split_feature=6 8
split_gain=30.6863 15.7953
threshold=72.500000000000014 63.500000000000007
decision_type=2 2
left_child=1 -1
right_child=-2 -3
leaf_value=-0.025428255483005376 0.026493729861548743 0.004865393023124602
leaf_weight=81.789546079933643 59.127767406404018 58.817094087600708
leaf_count=140 113 105
internal_value=-0.000676581 -0.0124426
internal_weight=199.734 140.607
internal_count=358 245
is_linear=0
shrinkage=0.045426


Tree=52
num_leaves=2
num_cat=1
split_feature=9
split_gain=36.4682
threshold=0
decision_type=1
left_child=-1
right_child=-2
leaf_value=0.026462091922748541 -0.0126060949318881
leaf_weight=81.832669585943222 122.39553763717413
leaf_count=159 199
internal_value=0.00283473
internal_weight=204.228
internal_count=358
cat_boundaries=0 1
cat_threshold=1
is_linear=0
shrinkage=0.045426


Tree=53
num_leaves=3
num_cat=0
split_feature=6 8
split_gain=24.2993 19.0566
threshold=78.500000000000014 58.500000000000007
decision_type=2 2
left_child=1 -1
right_child=-2 -3
leaf_value=-0.022604115926558019 0.028972995761418402 0.010066812367192191
leaf_weight=68.548431701958179 60.968015156686306 77.271289229393005
leaf_count=128 92 138
internal_value=0.00482015 -0.00498852
internal_weight=206.788 145.82
internal_count=358 266
is_linear=0
shrinkage=0.045426


Tree=54
num_leaves=2
num_cat=0
split_feature=7
split_gain=31.767
threshold=54.500000000000007
decision_type=2
left_child=-1
right_child=-2
leaf_value=-0.019253639822857885 0.016844633523715142
leaf_weight=96.820517815649509 104.22158689796925
leaf_count=184 174
internal_value=-0.000315821
internal_weight=201.042
internal_count=358
is_linear=0
shrinkage=0.045426


Tree=55
num_leaves=3
num_cat=0
split_feature=4 0
split_gain=24.7693 10.9625
threshold=2.5000000000000004 36.500000000000007
decision_type=2 2
left_child=-1 -2
right_child=1 -3
leaf_value=-0.016377362337009215 0.030061433198567154 0.0013158958755921347
leaf_weight=87.851520121097565 55.736596420407295 60.554363206028938
leaf_count=149 105 104
internal_value=0.00156094 0.0155064
internal_weight=204.142 116.291
internal_count=358 209
is_linear=0
shrinkage=0.045426


Tree=56
num_leaves=2
num_cat=0
split_feature=7
split_gain=23.0955
threshold=46.500000000000007
decision_type=2
left_child=-1
right_child=-2
leaf_value=-0.021181809836397312 0.010592136153824778
leaf_weight=73.144358769059181 131.95375496149063
leaf_count=156 202
internal_value=-0.000526077
internal_weight=205.098
internal_count=358
is_linear=0
shrinkage=0.045426


Tree=57
num_leaves=3
num_cat=0
split_feature=6 8
split_gain=40.4652 6.4581
threshold=68.500000000000014 53.500000000000007
decision_type=2 2
left_child=1 -1
right_child=-2 -3
leaf_value=-0.033174342886493811 0.01837861101968713 -0.01076860545778777
leaf_weight=58.496384151279926 87.919697932898998 63.905878186225891
leaf_count=96 147 115
internal_value=-0.00483233 -0.0218773
internal_weight=210.322 122.402
internal_count=358 211
is_linear=0
shrinkage=0.045426


Tree=58
num_leaves=2
num_cat=1
split_feature=9
split_gain=32.8919
threshold=0
decision_type=1
left_child=-1
right_child=-2
leaf_value=0.032481791763963243 -0.0043512160580648539
leaf_weight=88.719987288117409 110.2573968321085
leaf_count=164 194
internal_value=0.0118571
internal_weight=198.977
internal_count=358
cat_boundaries=0 1
cat_threshold=1
is_linear=0
shrinkage=0.045426


Tree=59
num_leaves=3
num_cat=0
split_feature=6 8
split_gain=44.8866 33.7761
threshold=76.500000000000014 61.500000000000007
decision_type=2 2
left_child=1 -1
right_child=-2 -3
leaf_value=-0.036412924029484615 0.030364199178968085 0.0091715390366034974
leaf_weight=76.68923020362854 60.753034114837646 57.147377364337444
leaf_count=146 98 114
internal_value=-0.00170606 -0.0166224
internal_weight=194.59 133.837
internal_count=358 260
is_linear=0
shrinkage=0.045426


Tree=60
num_leaves=2
num_cat=1
split_feature=9
split_gain=31.8759
threshold=0
decision_type=1
left_child=-1
right_child=-2
leaf_value=0.021412647099439727 -0.015132476277711561
leaf_weight=84.089740231633186 118.37777824699879
leaf_count=161 197
internal_value=0
internal_weight=202.468
internal_count=358
cat_boundaries=0 1
cat_threshold=1
is_linear=0
shrinkage=0.045426


Tree=61
num_leaves=3
num_cat=0
split_feature=6 6
split_gain=26.8736 6.89293
threshold=74.500000000000014 46.500000000000007
decision_type=2 2
left_child=1 -1
right_child=-2 -3
leaf_value=-0.0053642086948679562 0.022209124573100279 -0.026639450687404375
leaf_weight=84.084220856428146 57.837344154715538 57.828664407134056
leaf_count=145 103 110
internal_value=-0.00354486 -0.0143744
internal_weight=199.75 141.913
internal_count=358 255
is_linear=0
shrinkage=0.045426


Tree=62
num_leaves=2
num_cat=0
split_feature=7
split_gain=44.2925
threshold=49.500000000000007
decision_type=2
left_child=-1
right_child=-2
leaf_value=-0.021965195918052731 0.020315315137433832
leaf_weight=97.272205606102943 107.38551048189402
leaf_count=175 183
internal_value=0
internal_weight=204.658
internal_count=358
is_linear=0
shrinkage=0.045426


Tree=63
num_leaves=3
num_cat=1
split_feature=2 3
split_gain=58.0755 13.0801
threshold=0 6.5000000000000009
decision_type=1 2
left_child=-1 -2
right_child=1 -3
leaf_value=0.029966344986253914 -0.036344175676584954 -0.0075954647918454595
leaf_weight=62.178381979465485 63.522870048880577 77.632300086319447
leaf_count=128 108 122
internal_value=-0.00362523 -0.0195019
internal_weight=203.334 141.155
internal_count=358 230
cat_boundaries=0 1
cat_threshold=12
is_linear=0
shrinkage=0.045426


Tree=64
num_leaves=3
num_cat=0
split_feature=8 7
split_gain=75.6719 15.665
threshold=61.500000000000007 60.500000000000007
decision_type=2 2
left_child=1 -1
right_child=-2 -3
leaf_value=-0.041853058822564709 0.032128757618194441 -0.0087872520925535193
leaf_weight=61.827368915081024 75.051020197570324 64.906145036220551
leaf_count=109 158 91
internal_value=-0.00371269 -0.02531
internal_weight=201.785 126.734
internal_count=358 200
is_linear=0
shrinkage=0.045426


Tree=65
num_leaves=2
num_cat=1
split_feature=9
split_gain=29.0758
threshold=0
decision_type=1
left_child=-1
right_child=-2
leaf_value=0.022509837166362713 -0.012663058446606991
leaf_weight=81.530149817466736 118.49065067619085
leaf_count=161 197
internal_value=0.00145355
internal_weight=200.021
internal_count=358
cat_boundaries=0 1
cat_threshold=1
is_linear=0
shrinkage=0.045426


Tree=66
num_leaves=3
num_cat=1
split_feature=2 8
split_gain=38.371 6.86962
threshold=0 57.500000000000007
decision_type=1 2
left_child=-1 -2
right_child=1 -3
leaf_value=0.020574030266158453 -0.030976398528606838 -0.008578221142552302
leaf_weight=65.610139802098274 70.322368480265141 59.088375344872475
leaf_count=130 124 104
internal_value=-0.00580339 -0.0196106
internal_weight=195.021 129.411
internal_count=358 228
cat_boundaries=0 1
cat_threshold=12
is_linear=0
shrinkage=0.045426


Tree=67
num_leaves=3
num_cat=1
split_feature=2 7
split_gain=18.5364 10.2532
threshold=0 63.500000000000007
decision_type=1 2
left_child=-1 -2
right_child=1 -3
leaf_value=0.012105444213792522 -0.029363055874909699 -0.0029125743855719665
leaf_weight=72.524196892976761 63.242272756993771 66.026278033852577
leaf_count=135 134 89
internal_value=-0.00521711 -0.0150613
internal_weight=201.793 129.269
internal_count=358 223
cat_boundaries=0 1
cat_threshold=12
is_linear=0
shrinkage=0.045426


Tree=68
num_leaves=3
num_cat=1
split_feature=3 9
split_gain=36.5583 13.9294
threshold=5.5000000000000009 0
decision_type=2 1
left_child=-1 -2
right_child=1 -3
leaf_value=-0.02658292512114489 -0.0034414702635836296 0.027546624780393381
leaf_weight=78.495317511260509 51.255775429308414 64.651305451989174
leaf_count=126 99 133
internal_value=-0.00247993 0.0134665
internal_weight=194.402 115.907
internal_count=358 232
cat_boundaries=0 1
cat_threshold=2
is_linear=0
shrinkage=0.045426


Tree=69
num_leaves=2
num_cat=0
split_feature=8
split_gain=32.8503
threshold=60.500000000000007
decision_type=2
left_child=-1
right_child=-2
leaf_value=-0.018256666486940167 0.019284290814249337
leaf_weight=99.130662083625793 93.119784310460091
leaf_count=185 173
internal_value=0
internal_weight=192.25
internal_count=358
is_linear=0
shrinkage=0.045426


Tree=70
num_leaves=3
num_cat=0
split_feature=3 3
split_gain=25.168 13.0201
threshold=4.5000000000000009 9.5000000000000018
decision_type=2 2
left_child=-1 -2
right_child=1 -3
leaf_value=-0.017750509645406993 0.033578502812151079 0.0047417065184692806
leaf_weight=60.89210644364357 58.019725531339645 82.805385835468769
leaf_count=98 117 143
internal_value=0.00625805 0.0169701
internal_weight=201.717 140.825
internal_count=358 260
is_linear=0
shrinkage=0.045426


Tree=71
num_leaves=3
num_cat=1
split_feature=3 9
split_gain=20.9085 20.376
threshold=6.5000000000000009 0
decision_type=2 1
left_child=-1 -2
right_child=1 -3
leaf_value=-0.025723407203628566 -0.014004626833167321 0.023844832027172285
leaf_weight=80.145794987678528 59.130871765315533 56.883821330964565
leaf_count=144 101 113
internal_value=-0.00782358 0.00417009
internal_weight=196.16 116.015
internal_count=358 214
cat_boundaries=0 1
cat_threshold=2
is_linear=0
shrinkage=0.045426


Tree=72
num_leaves=2
num_cat=1
split_feature=9
split_gain=35.5895
threshold=0
decision_type=1
left_child=-1
right_child=-2
leaf_value=0.022919345585401252 -0.016699049810650089
leaf_weight=80.465978369116783 111.30366192758083
leaf_count=163 195
internal_value=0
internal_weight=191.77
internal_count=358
cat_boundaries=0 1
cat_threshold=1
is_linear=0
shrinkage=0.045426


Tree=73
num_leaves=2
num_cat=0
split_feature=8
split_gain=50.9352
threshold=60.500000000000007
decision_type=2
left_child=-1
right_child=-2
leaf_value=-0.023483698151608858 0.024308431646543248
leaf_weight=104.68199086934328 81.538806192576885
leaf_count=192 166
internal_value=-0.00231067
internal_weight=186.221
internal_count=358
is_linear=0
shrinkage=0.045426


Tree=74
num_leaves=3
num_cat=0
split_feature=6 8
split_gain=31.3122 19.9088
threshold=72.500000000000014 46.500000000000007
decision_type=2 2
left_child=1 -1
right_child=-2 -3
leaf_value=-0.036299095715088922 0.023574935373933428 0
leaf_weight=54.891618296504021 61.785052925348282 71.716052293777466
leaf_count=105 116 137
internal_value=-0.00260523 -0.0157537
internal_weight=188.393 126.608
internal_count=358 242
is_linear=0
shrinkage=0.045426


Tree=75
num_leaves=2
num_cat=0
split_feature=7
split_gain=19.1212
threshold=50.500000000000007
decision_type=2
left_child=-1
right_child=-2
leaf_value=-0.013265429898220641 0.015495310486947612
leaf_weight=86.568412996828556 104.56765330582857
leaf_count=172 186
internal_value=0.00223147
internal_weight=191.136
internal_count=358
is_linear=0
shrinkage=0.045426


Tree=76
num_leaves=2
num_cat=1
split_feature=9
split_gain=31.1302
threshold=0
decision_type=1
left_child=-1
right_child=-2
leaf_value=0.024215083096600518 -0.012214529138931299
leaf_weight=86.638960763812065 107.90774235874414
leaf_count=167 191
internal_value=0.00378244
internal_weight=194.547
internal_count=358
cat_boundaries=0 1
cat_threshold=1
is_linear=0
shrinkage=0.045426


Tree=77
num_leaves=3
num_cat=0
split_feature=7 6
split_gain=27.286 15.1239
threshold=62.500000000000007 59.500000000000007
decision_type=2 2
left_child=1 -1
right_child=-2 -3
leaf_value=-0.020828872549585577 0.029758923311422616 0.011424104634508898
leaf_weight=59.45016373693943 79.085969485342503 58.625404350459576
leaf_count=106 142 110
internal_value=0.00906285 -0.00443727
internal_weight=197.162 118.076
internal_count=358 216
is_linear=0
shrinkage=0.045426


Tree=78
num_leaves=3
num_cat=0
split_feature=6 3
split_gain=20.2692 8.67825
threshold=71.500000000000014 6.5000000000000009
decision_type=2 2
left_child=1 -1
right_child=-2 -3
leaf_value=-0.019869328531467507 0.025526069261657226 0.0038599689145549991
leaf_weight=53.411603510379791 62.934124395251274 72.506796352565289
leaf_count=97 122 139
internal_value=0.00437343 -0.00585802
internal_weight=188.853 125.918
internal_count=358 236
is_linear=0
shrinkage=0.045426


Tree=79
num_leaves=2
num_cat=1
split_feature=9
split_gain=16.5277
threshold=0
decision_type=1
left_child=-1
right_child=-2
leaf_value=0.014533569415716497 -0.013017596352423617
leaf_weight=71.741389527916908 117.54512622207403
leaf_count=158 200
internal_value=-0.00233209
internal_weight=189.287
internal_count=358
cat_boundaries=0 1
cat_threshold=1
is_linear=0
shrinkage=0.045426


Tree=80
num_leaves=3
num_cat=1
split_feature=9 6
split_gain=22.8445 3.90395
threshold=0 69.500000000000014
decision_type=1 2
left_child=-1 -2
right_child=1 -3
leaf_value=0.013813687614743966 -0.02771904999500167 -0.0095037795881376223
leaf_weight=66.219368115067482 60.619058646261692 57.802999176084995
leaf_count=153 104 101
internal_value=-0.00713604 -0.0192367
internal_weight=184.641 118.422
internal_count=358 205
cat_boundaries=0 1
cat_threshold=1
is_linear=0
shrinkage=0.045426


Tree=81
num_leaves=3
num_cat=1
split_feature=2 7
split_gain=27.1731 8.00432
threshold=0 63.500000000000007
decision_type=1 2
left_child=-1 -2
right_child=1 -3
leaf_value=0.02295469576220879 -0.024884522953694893 -0.0023229333581560726
leaf_weight=54.398938179016113 64.872117437422276 74.773638688027859
leaf_count=125 138 95
internal_value=-0.00159853 -0.0122683
internal_weight=194.045 139.646
internal_count=358 233
cat_boundaries=0 1
cat_threshold=12
is_linear=0
shrinkage=0.045426


Tree=82
num_leaves=3
num_cat=0
split_feature=3 6
split_gain=19.0476 8.28634
threshold=6.5000000000000009 50.500000000000007
decision_type=2 2
left_child=-1 -2
right_child=1 -3
leaf_value=-0.018675837723312598 0 0.024550566532120909
leaf_weight=68.901577994227409 59.385628432035446 53.447832874953747
leaf_count=141 105 112
internal_value=0 0.0116039
internal_weight=181.735 112.833
internal_count=358 217
is_linear=0
shrinkage=0.045426


Tree=83
num_leaves=3
num_cat=0
split_feature=0 7
split_gain=21.7064 2.77048
threshold=32.500000000000007 53.500000000000007
decision_type=2 2
left_child=-1 -2
right_child=1 -3
leaf_value=0.022472601632574769 -0.015797301902001307 0
leaf_weight=90.823685713112354 48.200364656746387 52.331002704799175
leaf_count=155 101 102
internal_value=0.00626308 -0.00794294
internal_weight=191.355 100.531
internal_count=358 203
is_linear=0
shrinkage=0.045426


Tree=84
num_leaves=2
num_cat=1
split_feature=9
split_gain=26.0429
threshold=0
decision_type=1
left_child=-1
right_child=-2
leaf_value=0.017969136014804578 -0.016476848610266163
leaf_weight=72.95950648188591 117.19495905190706
leaf_count=160 198
internal_value=-0.00301761
internal_weight=190.154
internal_count=358
cat_boundaries=0 1
cat_threshold=1
is_linear=0
shrinkage=0.045426


Tree=85
num_leaves=3
num_cat=1
split_feature=9 6
split_gain=20.2635 1.62655
threshold=0 58.500000000000007
decision_type=1 2
left_child=-1 -2
right_child=1 -3
leaf_value=0.019465454869840148 -0.017046908488191941 -0.0046746042700156797
leaf_weight=71.708081349730492 57.338010065257549 56.901601135730743
leaf_count=157 89 112
internal_value=0.000328708 -0.0112971
internal_weight=185.948 114.24
internal_count=358 201
cat_boundaries=0 1
cat_threshold=1
is_linear=0
shrinkage=0.045426


Tree=86
num_leaves=2
num_cat=0
split_feature=8
split_gain=18.9743
threshold=61.500000000000007
decision_type=2
left_child=-1
right_child=-2
leaf_value=-0.023454845270851898 0.0044780385485615757
leaf_weight=99.448564127087593 96.603987954556942
leaf_count=187 171
internal_value=-0.00946737
internal_weight=196.053
internal_count=358
is_linear=0
shrinkage=0.045426


Tree=87
num_leaves=3
num_cat=1
split_feature=9 8
split_gain=13.4848 2.06616
threshold=0 65.500000000000014
decision_type=1 2
left_child=-1 -2
right_child=1 -3
leaf_value=0.014669960922416809 -0.016625998028108123 -0.0033988976270993478
leaf_weight=69.311082571744919 59.999340809881687 58.891927391290665
leaf_count=156 96 106
internal_value=-0.000965196 -0.0104694
internal_weight=188.202 118.891
internal_count=358 202
cat_boundaries=0 1
cat_threshold=1
is_linear=0
shrinkage=0.045426


Tree=88
num_leaves=3
num_cat=0
split_feature=7 7
split_gain=29.2063 6.27791
threshold=45.500000000000007 72.500000000000014
decision_type=2 2
left_child=-1 -2
right_child=1 -3
leaf_value=-0.026279324164655511 0.02140468908946886 0
leaf_weight=67.820451021194458 59.59972321242094 55.592745937407017
leaf_count=150 104 104
internal_value=-0.00246269 0.0111833
internal_weight=183.013 115.192
internal_count=358 208
is_linear=0
shrinkage=0.045426


Tree=89
num_leaves=2
num_cat=0
split_feature=8
split_gain=28.0271
threshold=58.500000000000007
decision_type=2
left_child=-1
right_child=-2
leaf_value=-0.019009716921311103 0.016848319934686766
leaf_weight=98.101622268557549 82.175609789788723
leaf_count=192 166
internal_value=-0.00241237
internal_weight=180.277
internal_count=358
is_linear=0
shrinkage=0.045426


Tree=90
num_leaves=3
num_cat=0
split_feature=3 0
split_gain=16.1723 7.92216
threshold=5.5000000000000009 35.500000000000007
decision_type=2 2
left_child=-1 -2
right_child=1 -3
leaf_value=-0.021408130947955399 -0.0016809051775990192 0.021224828704313158
leaf_weight=56.931524485349655 68.722295083105564 52.308705687522888
leaf_count=118 121 119
internal_value=-0.00125965 0.00785944
internal_weight=177.963 121.031
internal_count=358 240
is_linear=0
shrinkage=0.045426


Tree=91
num_leaves=3
num_cat=1
split_feature=9 3
split_gain=25.784 3.10198
threshold=0 8.5000000000000018
decision_type=1 2
left_child=-1 -2
right_child=1 -3
leaf_value=0.015551691161674118 -0.02747888709433036 -0.010699493604746469
leaf_weight=67.914297193288803 57.744279988110065 58.572430334985256
leaf_count=157 91 110
internal_value=-0.00629625 -0.0194466
internal_weight=184.231 116.317
internal_count=358 201
cat_boundaries=0 1
cat_threshold=1
is_linear=0
shrinkage=0.045426


Tree=92
num_leaves=2
num_cat=1
split_feature=9
split_gain=27.4104
threshold=0
decision_type=1
left_child=-1
right_child=-2
leaf_value=0.024215097648143537 -0.010895588823109726
leaf_weight=81.387257546186447 103.03724715858698
leaf_count=167 191
internal_value=0.00436062
internal_weight=184.425
internal_count=358
cat_boundaries=0 1
cat_threshold=1
is_linear=0
shrinkage=0.045426


Tree=93
num_leaves=3
num_cat=2
split_feature=2 1
split_gain=43.1955 2.56764
threshold=0 1
decision_type=1 1
left_child=-1 -2
right_child=1 -3
leaf_value=0.032757331376404124 -0.005239792731384316 -0.019772619886304722
leaf_weight=57.978520251810551 62.670982472598553 59.443285323679447
leaf_count=127 113 118
internal_value=0.00351436 -0.0117425
internal_weight=180.093 122.114
internal_count=358 231
cat_boundaries=0 1 2
cat_threshold=12 1
is_linear=0
shrinkage=0.045426


Tree=94
num_leaves=2
num_cat=1
split_feature=9
split_gain=20.8498
threshold=0
decision_type=1
left_child=-1
right_child=-2
leaf_value=0.017272137189647183 -0.014006207639245429
leaf_weight=76.39581336081028 102.88314139097929
leaf_count=164 194
internal_value=-0.000420839
internal_weight=179.279
internal_count=358
cat_boundaries=0 1
cat_threshold=1
is_linear=0
shrinkage=0.045426


Tree=95
num_leaves=3
num_cat=0
split_feature=8 7
split_gain=24.2069 2.97291
threshold=61.500000000000007 56.500000000000007
decision_type=2 2
left_child=1 -1
right_child=-2 -3
leaf_value=-0.026635266025052434 0.015507462828630646 -0.0091182805842031488
leaf_weight=49.424720779061317 77.05766537040472 52.153559751808643
leaf_count=115 153 90
internal_value=-0.00335777 -0.0181174
internal_weight=178.636 101.578
internal_count=358 205
is_linear=0
shrinkage=0.045426


Tree=96
num_leaves=2
num_cat=1
split_feature=9
split_gain=28.8428
threshold=0
decision_type=1
left_child=-1
right_child=-2
leaf_value=0.022020193983742994 -0.013884037635574159
leaf_weight=79.173780396580696 109.84963728487492
leaf_count=165 193
internal_value=0.000920699
internal_weight=189.023
internal_count=358
cat_boundaries=0 1
cat_threshold=1
is_linear=0
shrinkage=0.045426


Tree=97
num_leaves=3
num_cat=1
split_feature=2 8
split_gain=25.1134 1.60227
threshold=0 62.500000000000007
decision_type=1 2
left_child=-1 -2
right_child=1 -3
leaf_value=0.020340896245286434 -0.019488571149109634 -0.0073208792848260557
leaf_weight=60.412352472543716 65.776628792285919 58.707820221781731
leaf_count=133 136 89
internal_value=-0.00151574 -0.0130824
internal_weight=184.897 124.484
internal_count=358 225
cat_boundaries=0 1
cat_threshold=12
is_linear=0
shrinkage=0.045426


Tree=98
num_leaves=3
num_cat=1
split_feature=2 6
split_gain=37.3313 10.8723
threshold=0 62.500000000000007
decision_type=1 2
left_child=-1 -2
right_child=1 -3
leaf_value=0.023871473225784326 -0.032424233199394928 -0.0040152776693017488
leaf_weight=62.776191137731075 57.602982223033905 61.740651324391365
leaf_count=134 124 100
internal_value=-0.00208708 -0.0167331
internal_weight=182.12 119.344
internal_count=358 224
cat_boundaries=0 1
cat_threshold=12
is_linear=0
shrinkage=0.045426


Tree=99
num_leaves=2
num_cat=1
split_feature=9
split_gain=21.7156
threshold=0
decision_type=1
left_child=-1
right_child=-2
leaf_value=0.017432941500438788 -0.014762300234294996
leaf_weight=70.219528302550316 110.65058239549398
leaf_count=162 196
internal_value=-0.00200765
internal_weight=180.87
internal_count=358
cat_boundaries=0 1
cat_threshold=1
is_linear=0
shrinkage=0.045426


Tree=100
num_leaves=3
num_cat=0
split_feature=3 5
split_gain=8.91321 5.84557
threshold=5.5000000000000009 26.470360409159085
decision_type=2 2
left_child=-1 -2
right_child=1 -3
leaf_value=-0.013298384151703148 0.018666032952183928 -0.0017682441979495857
leaf_weight=65.609080463647842 53.363698378205299 54.935934148728848
leaf_count=131 106 121
internal_value=0 0.00789488
internal_weight=173.909 108.3
internal_count=358 227
is_linear=0
shrinkage=0.045426


Tree=101
num_leaves=3
num_cat=0
split_feature=3 0
split_gain=50.7718 4.10491
threshold=5.5000000000000009 33.500000000000007
decision_type=2 2
left_child=-1 -2
right_child=1 -3
leaf_value=-0.033501715319295758 0.0061188606370984255 0.025552011130926009
leaf_weight=64.555317923426628 47.887680888175964 59.818657338619232
leaf_count=128 98 132
internal_value=-0.00145371 0.0173555
internal_weight=172.262 107.706
internal_count=358 230
is_linear=0
shrinkage=0.045426


Tree=102
num_leaves=3
num_cat=1
split_feature=6 9
split_gain=21.9938 12.4338
threshold=65.500000000000014 0
decision_type=2 1
left_child=1 -1
right_child=-2 -3
leaf_value=-0.035910354179293509 0.01255050205812574 -0.0035244917821183391
leaf_weight=49.749282971024513 75.60262181609869 54.890246972441673
leaf_count=76 147 135
internal_value=-0.00574018 -0.0193877
internal_weight=180.242 104.64
internal_count=358 211
cat_boundaries=0 1
cat_threshold=2
is_linear=0
shrinkage=0.045426


Tree=103
num_leaves=2
num_cat=1
split_feature=9
split_gain=15.6801
threshold=0
decision_type=1
left_child=-1
right_child=-2
leaf_value=0.020004364576904202 -0.0073046922270072175
leaf_weight=73.972147092223167 101.60757970809937
leaf_count=166 192
internal_value=0.0039502
internal_weight=175.58
internal_count=358
cat_boundaries=0 1
cat_threshold=1
is_linear=0
shrinkage=0.045426


Tree=104
num_leaves=3
num_cat=1
split_feature=2 0
split_gain=47.0084 2.07966
threshold=0 36.500000000000007
decision_type=1 2
left_child=-1 -2
right_child=1 -3
leaf_value=0.031497213258183956 -0.011309679185157205 -0.025529835760919831
leaf_weight=49.657124675810337 61.024706207215786 57.859273090958595
leaf_count=128 123 107
internal_value=-0.00171397 -0.0171936
internal_weight=168.541 118.884
internal_count=358 230
cat_boundaries=0 1
cat_threshold=12
is_linear=0
shrinkage=0.045426


Tree=105
num_leaves=3
num_cat=0
split_feature=3 4
split_gain=9.44301 7.40241
threshold=5.5000000000000009 3.5000000000000004
decision_type=2 2
left_child=-1 -2
right_child=1 -3
leaf_value=-0.012043710496983663 0 0.021581081622062466
leaf_weight=59.242100492119789 68.025190159678459 58.597930088639259
leaf_count=119 132 107
internal_value=0.00256606 0.00976649
internal_weight=185.865 126.623
internal_count=358 239
is_linear=0
shrinkage=0.045426


Tree=106
num_leaves=3
num_cat=0
split_feature=4 0
split_gain=20.0847 4.61857
threshold=2.5000000000000004 32.500000000000007
decision_type=2 2
left_child=-1 -2
right_child=1 -3
leaf_value=-0.01201225667482278 0.0074981930087078628 0.028850281387569343
leaf_weight=72.465895049273968 47.02561654150486 52.17002958804369
leaf_count=150 88 120
internal_value=0.00576903 0.0192144
internal_weight=171.662 99.1956
internal_count=358 208
is_linear=0
shrinkage=0.045426


Tree=107
num_leaves=3
num_cat=0
split_feature=8 3
split_gain=17.4862 4.80433
threshold=46.500000000000007 7.5000000000000009
decision_type=2 2
left_child=-1 -2
right_child=1 -3
leaf_value=-0.0202632907224717 -0.00051188805336161184 0.018805249354363719
leaf_weight=75.123519383370876 48.44838011264801 48.904017366468906
leaf_count=150 98 110
internal_value=-0.003636 0.00874151
internal_weight=172.476 97.3524
internal_count=358 208
is_linear=0
shrinkage=0.045426


Tree=108
num_leaves=3
num_cat=1
split_feature=2 3
split_gain=17.9557 1.99739
threshold=0 8.5000000000000018
decision_type=1 2
left_child=-1 -2
right_child=1 -3
leaf_value=0.020768196744326381 -0.015622986997349812 -0.0028503814047611637
leaf_weight=55.898188836872578 53.837969228625298 68.214950919151306
leaf_count=128 126 104
internal_value=0.00136184 -0.0081988
internal_weight=177.951 122.053
internal_count=358 230
cat_boundaries=0 1
cat_threshold=12
is_linear=0
shrinkage=0.045426


Tree=109
num_leaves=3
num_cat=0
split_feature=8 8
split_gain=18.51 0.591838
threshold=46.500000000000007 76.500000000000014
decision_type=2 2
left_child=-1 -2
right_child=1 -3
leaf_value=-0.013788825209945017 0.011024261902419232 0.021028228237778827
leaf_weight=67.6388139128685 56.33769428730011 52.324764870107174
leaf_count=144 113 101
internal_value=0.00448663 0.0162836
internal_weight=176.301 108.662
internal_count=358 214
is_linear=0
shrinkage=0.045426


Tree=110
num_leaves=2
num_cat=0
split_feature=7
split_gain=25.2966
threshold=49.500000000000007
decision_type=2
left_child=-1
right_child=-2
leaf_value=-0.01841983043488243 0.016974560977274275
leaf_weight=74.041802614927292 94.380522787570953
leaf_count=171 187
internal_value=0.00114223
internal_weight=168.422
internal_count=358
is_linear=0
shrinkage=0.045426


Tree=111
num_leaves=3
num_cat=0
split_feature=7 5
split_gain=12.9093 7.57046
threshold=77.500000000000014 24.15580944001071
decision_type=2 2
left_child=1 -1
right_child=-2 -3
leaf_value=-0.022783935645304274 0.015046066212246223 0
leaf_weight=64.475961022078991 50.450860567390919 61.583345055580139
leaf_count=114 91 153
internal_value=-0.00394828 -0.0119198
internal_weight=176.51 126.059
internal_count=358 267
is_linear=0
shrinkage=0.045426


Tree=112
num_leaves=3
num_cat=0
split_feature=4 8
split_gain=21.2983 10.6572
threshold=3.5000000000000004 60.500000000000007
decision_type=2 2
left_child=1 -1
right_child=-2 -3
leaf_value=-0.01921014729292515 0.027429138676922996 0.009910637510797151
leaf_weight=52.85664202272892 70.111519381403923 48.581694215536118
leaf_count=117 147 94
internal_value=0.00810755 -0.00482286
internal_weight=171.55 101.438
internal_count=358 211
is_linear=0
shrinkage=0.045426


Tree=113
num_leaves=3
num_cat=0
split_feature=6 6
split_gain=19.2576 9.68855
threshold=75.500000000000014 51.500000000000007
decision_type=2 2
left_child=1 -1
right_child=-2 -3
leaf_value=-0.0027308774959973257 0.018100904589080105 -0.02912478279740446
leaf_weight=73.005426608026028 54.067273490130901 52.321906991302967
leaf_count=155 102 101
internal_value=-0.00415929 -0.0141357
internal_weight=179.395 125.327
internal_count=358 256
is_linear=0
shrinkage=0.045426


Tree=114
num_leaves=3
num_cat=2
split_feature=2 9
split_gain=21.6208 15.1393
threshold=0 1
decision_type=1 1
left_child=-1 -2
right_child=1 -3
leaf_value=0.025072108560001569 0.0096133217500570158 -0.022340687084135644
leaf_weight=53.761256106197834 53.8118976354599 66.877766579389572
leaf_count=128 124 106
internal_value=0.00357291 -0.00713357
internal_weight=174.451 120.69
internal_count=358 230
cat_boundaries=0 1 2
cat_threshold=12 1
is_linear=0
shrinkage=0.045426


Tree=115
num_leaves=3
num_cat=0
split_feature=6 8
split_gain=19.9076 13.1093
threshold=78.500000000000014 58.500000000000007
decision_type=2 2
left_child=1 -1
right_child=-2 -3
leaf_value=-0.022254039980606096 0.027369486358936254 0.0073945445237109542
leaf_weight=59.145914241671562 48.897436961531639 60.764097094535828
leaf_count=151 88 119
internal_value=0.00280196 -0.0068619
internal_weight=168.807 119.91
internal_count=358 270
is_linear=0
shrinkage=0.045426


Tree=116
num_leaves=2
num_cat=0
split_feature=7
split_gain=25.7969
threshold=61.500000000000007
decision_type=2
left_child=-1
right_child=-2
leaf_value=-0.014918161813331993 0.020223967795713598
leaf_weight=94.015633001923561 79.063581928610802
leaf_count=205 153
internal_value=0.000876743
internal_weight=173.079
internal_count=358
is_linear=0
shrinkage=0.045426


Tree=117
num_leaves=3
num_cat=0
split_feature=3 7
split_gain=58.5587 2.6086
threshold=5.5000000000000009 53.500000000000007
decision_type=2 2
left_child=-1 -2
right_child=1 -3
leaf_value=-0.034093097489917075 0.013453120499534937 0.030295084851189983
leaf_weight=57.551076889038086 50.477225877344608 55.314233675599098
leaf_count=131 116 111
internal_value=0.00241168 0.0227214
internal_weight=163.343 105.791
internal_count=358 227
is_linear=0
shrinkage=0.045426


Tree=118
num_leaves=3
num_cat=1
split_feature=2 7
split_gain=24.3238 1.17494
threshold=0 55.500000000000007
decision_type=1 2
left_child=-1 -2
right_child=1 -3
leaf_value=0.01490853426435179 -0.026914149604635361 -0.014692868515918084
leaf_weight=57.064118675887585 53.069141261279583 64.146730273962021
leaf_count=127 124 107
internal_value=-0.00788442 -0.0190226
internal_weight=174.28 117.216
internal_count=358 231
cat_boundaries=0 1
cat_threshold=12
is_linear=0
shrinkage=0.045426


Tree=119
num_leaves=3
num_cat=1
split_feature=2 6
split_gain=16.7285 9.21011
threshold=0 64.500000000000014
decision_type=1 2
left_child=-1 -2
right_child=1 -3
leaf_value=0.016326680573365074 -0.023613314440552795 0.0023459618605006184
leaf_weight=70.17423939704895 59.134864874184132 48.247173219919205
leaf_count=138 130 90
internal_value=0.000140542 -0.0105598
internal_weight=177.556 107.382
internal_count=358 220
cat_boundaries=0 1
cat_threshold=12
is_linear=0
shrinkage=0.045426


Tree=120
num_leaves=3
num_cat=1
split_feature=2 8
split_gain=13.532 5.62912
threshold=0 45.500000000000007
decision_type=1 2
left_child=-1 -2
right_child=1 -3
leaf_value=0.024539222340170655 -0.012602280070750633 0.0072988593279415858
leaf_weight=55.870656043291092 51.980408698320389 65.289139524102211
leaf_count=123 100 135
internal_value=0.00831515 -0.00105142
internal_weight=173.14 117.27
internal_count=358 235
cat_boundaries=0 1
cat_threshold=12
is_linear=0
shrinkage=0.045426


Tree=121
num_leaves=2
num_cat=1
split_feature=9
split_gain=14.0751
threshold=0
decision_type=1
left_child=-1
right_child=-2
leaf_value=0.016745621640976358 -0.0099284279599074054
leaf_weight=67.955906867980957 101.16968470811844
leaf_count=165 193
internal_value=0.000526964
internal_weight=169.126
internal_count=358
cat_boundaries=0 1
cat_threshold=1
is_linear=0
shrinkage=0.045426


Tree=122
num_leaves=3
num_cat=0
split_feature=6 6
split_gain=39.6613 16.712
threshold=72.500000000000014 46.500000000000007
decision_type=2 2
left_child=1 -1
right_child=-2 -3
leaf_value=-0.0041707368373547988 0.028019523246185979 -0.039123207483266705
leaf_weight=69.289797060191631 51.02983907610178 51.770628854632378
leaf_count=150 106 102
internal_value=-0.00515001 -0.0195256
internal_weight=172.09 121.06
internal_count=358 252
is_linear=0
shrinkage=0.045426


Tree=123
num_leaves=3
num_cat=2
split_feature=2 9
split_gain=22.5643 18.3206
threshold=0 1
decision_type=1 1
left_child=-1 -2
right_child=1 -3
leaf_value=0.023167567830229909 0.0095507330837887993 -0.027049433253624758
leaf_weight=54.825812570750713 48.263792425394058 63.407074965536594
leaf_count=126 128 104
internal_value=0.00149178 -0.00994482
internal_weight=166.497 111.671
internal_count=358 232
cat_boundaries=0 1 2
cat_threshold=12 1
is_linear=0
shrinkage=0.045426


Tree=124
num_leaves=3
num_cat=0
split_feature=6 7
split_gain=25.9141 18.0418
threshold=70.500000000000014 66.500000000000014
decision_type=2 2
left_child=1 -1
right_child=-2 -3
leaf_value=-0.030560655027523267 0.022930965204226807 0.005294673875551395
leaf_weight=60.47758537530899 61.889676086604595 51.877685606479645
leaf_count=146 120 92
internal_value=-0.000366398 -0.0136181
internal_weight=174.245 112.355
internal_count=358 238
is_linear=0
shrinkage=0.045426


Tree=125
num_leaves=3
num_cat=1
split_feature=2 3
split_gain=15.1969 4.39098
threshold=0 8.5000000000000018
decision_type=1 2
left_child=-1 -2
right_child=1 -3
leaf_value=0.013009130289904063 -0.0041012435858093724 -0.023682359530502763
leaf_weight=60.978106170892715 51.900364369153976 56.646876491606236
leaf_count=130 126 102
internal_value=-0.00373308 -0.0135151
internal_weight=169.525 108.547
internal_count=358 228
cat_boundaries=0 1
cat_threshold=12
is_linear=0
shrinkage=0.045426


Tree=126
num_leaves=2
num_cat=1
split_feature=1
split_gain=18.8108
threshold=0
decision_type=1
left_child=-1
right_child=-2
leaf_value=0.03039169809478217 0
leaf_weight=80.44764468818903 83.285191439092159
leaf_count=174 184
internal_value=0.0147467
internal_weight=163.733
internal_count=358
cat_boundaries=0 1
cat_threshold=1
is_linear=0
shrinkage=0.045426


Tree=127
num_leaves=2
num_cat=0
split_feature=7
split_gain=15.2259
threshold=48.500000000000007
decision_type=2
left_child=-1
right_child=-2
leaf_value=-0.023179819619120003 0.0034985383432091476
leaf_weight=73.450245708227158 104.46832083910704
leaf_count=170 188
internal_value=-0.00727133
internal_weight=177.919
internal_count=358
is_linear=0
shrinkage=0.045426


Tree=128
num_leaves=3
num_cat=1
split_feature=3 9
split_gain=29.8303 12.7032
threshold=5.5000000000000009 0
decision_type=2 1
left_child=-1 -2
right_child=1 -3
leaf_value=-0.029122325280253415 -0.0029455088512303829 0.026657120857465771
leaf_weight=54.983396612107754 57.268480405211449 57.315022125840187
leaf_count=125 107 126
internal_value=-0.0014315 0.011483
internal_weight=169.567 114.584
internal_count=358 233
cat_boundaries=0 1
cat_threshold=2
is_linear=0
shrinkage=0.045426


Tree=129
num_leaves=3
num_cat=1
split_feature=2 5
split_gain=13.0291 1.94972
threshold=0 25.612344238860846
decision_type=1 2
left_child=-1 -2
right_child=1 -3
leaf_value=0.011902476655615836 -0.019934406440305662 -0.0054916698209362185
leaf_weight=62.341779693961143 57.031378902494907 45.6048848554492
leaf_count=132 120 106
internal_value=-0.0032004 -0.0127389
internal_weight=164.978 102.636
internal_count=358 226
cat_boundaries=0 1
cat_threshold=12
is_linear=0
shrinkage=0.045426


Tree=130
num_leaves=3
num_cat=0
split_feature=3 3
split_gain=16.8903 11.255
threshold=5.5000000000000009 10.500000000000002
decision_type=2 2
left_child=-1 -2
right_child=1 -3
leaf_value=-0.018698324425130645 0.025606990752138476 -0.0015970804767618367
leaf_weight=54.358652912080288 60.10323166847229 59.380794174969196
leaf_count=123 119 116
internal_value=0.00194151 0.011724
internal_weight=173.843 119.484
internal_count=358 235
is_linear=0
shrinkage=0.045426


Tree=131
num_leaves=2
num_cat=0
split_feature=7
split_gain=15.3877
threshold=53.500000000000007
decision_type=2
left_child=-1
right_child=-2
leaf_value=-0.0092606413370447133 0.018259892979252252
leaf_weight=82.691766530275345 82.601636245846748
leaf_count=189 169
internal_value=0.00422209
internal_weight=165.293
internal_count=358
is_linear=0
shrinkage=0.045426


Tree=132
num_leaves=2
num_cat=1
split_feature=9
split_gain=14.4476
threshold=0
decision_type=1
left_child=-1
right_child=-2
leaf_value=0.014208565194526878 -0.013927703604074864
leaf_weight=57.887155070900917 103.68718984723091
leaf_count=158 200
internal_value=-0.00356225
internal_weight=161.574
internal_count=358
cat_boundaries=0 1
cat_threshold=1
is_linear=0
shrinkage=0.045426


Tree=133
num_leaves=2
num_cat=0
split_feature=5
split_gain=38.755
threshold=26.470360409159085
decision_type=2
left_child=-1
right_child=-2
leaf_value=0.023413637475002875 -0.019127972882476623
leaf_weight=88.255173161625862 87.753897778689861
leaf_count=174 184
internal_value=0.00194752
internal_weight=176.009
internal_count=358
is_linear=0
shrinkage=0.045426


Tree=134
num_leaves=3
num_cat=1
split_feature=6 2
split_gain=22.0692 7.22097
threshold=72.500000000000014 0
decision_type=2 1
left_child=1 -1
right_child=-2 -3
leaf_value=-0.021036640768285424 0.02475557649280603 0.0021036189537515051
leaf_weight=43.736151486635208 62.06313069164753 54.354659758508205
leaf_count=113 114 131
internal_value=0.00338276 -0.00969666
internal_weight=160.154 98.0908
internal_count=358 244
cat_boundaries=0 1
cat_threshold=2
is_linear=0
shrinkage=0.045426


Tree=135
num_leaves=2
num_cat=1
split_feature=2
split_gain=25.3247
threshold=0
decision_type=1
left_child=-1
right_child=-2
leaf_value=0.01421361288802557 -0.021023514521594087
leaf_weight=57.509807020425797 104.81613865494728
leaf_count=131 227
internal_value=-0.00867727
internal_weight=162.326
internal_count=358
cat_boundaries=0 1
cat_threshold=12
is_linear=0
shrinkage=0.045426


Tree=136
num_leaves=2
num_cat=1
split_feature=9
split_gain=15.9676
threshold=0
decision_type=1
left_child=-1
right_child=-2
leaf_value=0.010047383395047241 -0.018383850416054795
leaf_weight=62.436273708939552 109.73193138092756
leaf_count=162 196
internal_value=-0.00781001
internal_weight=172.168
internal_count=358
cat_boundaries=0 1
cat_threshold=1
is_linear=0
shrinkage=0.045426


Tree=137
num_leaves=2
num_cat=0
split_feature=8
split_gain=17.4137
threshold=52.500000000000007
decision_type=2
left_child=-1
right_child=-2
leaf_value=-0.01934990471860917 0.010313168888029979
leaf_weight=76.37708242982626 85.737025514245033
leaf_count=165 193
internal_value=-0.0033876
internal_weight=162.114
internal_count=358
is_linear=0
shrinkage=0.045426


Tree=138
num_leaves=3
num_cat=1
split_feature=7 9
split_gain=13.8532 4.48102
threshold=43.500000000000007 0
decision_type=2 1
left_child=-1 -2
right_child=1 -3
leaf_value=-0.0091434226325549824 0.0080350683177332592 0.027974658808874758
leaf_weight=56.030861787497997 56.225467652082443 53.509760819375515
leaf_count=149 101 108
internal_value=0.00868325 0.018199
internal_weight=165.766 109.735
internal_count=358 209
cat_boundaries=0 1
cat_threshold=2
is_linear=0
shrinkage=0.045426


Tree=139
num_leaves=3
num_cat=0
split_feature=8 6
split_gain=18.6534 11.4996
threshold=44.500000000000007 64.500000000000014
decision_type=2 2
left_child=-1 -2
right_child=1 -3
leaf_value=-0.016472211444937549 0.0012210249947380511 0.031649048696108066
leaf_weight=57.147293545305729 60.181473545730114 49.207149118185043
leaf_count=129 132 97
internal_value=0.00415242 0.0153505
internal_weight=166.536 109.389
internal_count=358 229
is_linear=0
shrinkage=0.045426


Tree=140
num_leaves=3
num_cat=0
split_feature=7 3
split_gain=26.6596 3.74889
threshold=36.500000000000007 8.5000000000000018
decision_type=2 2
left_child=-1 -2
right_child=1 -3
leaf_value=-0.029018874446164172 0.018383169662517101 0.00061698420299254562
leaf_weight=52.917251460254192 55.892019420862198 53.481110043823719
leaf_count=138 118 102
internal_value=-0.00237563 0.0101246
internal_weight=162.29 109.373
internal_count=358 220
is_linear=0
shrinkage=0.045426


Tree=141
num_leaves=3
num_cat=1
split_feature=9 0
split_gain=21.9483 1.20257
threshold=0 34.500000000000007
decision_type=1 2
left_child=-1 -2
right_child=1 -3
leaf_value=-0.019787181935835535 0.01997226026074745 0.0069946933083106502
leaf_weight=72.038013219833374 43.494249671697617 45.2701535820961
leaf_count=147 101 110
internal_value=-0.000919809 0.0138898
internal_weight=160.802 88.7644
internal_count=358 211
cat_boundaries=0 1
cat_threshold=2
is_linear=0
shrinkage=0.045426


Tree=142
num_leaves=2
num_cat=1
split_feature=1
split_gain=13.8378
threshold=0
decision_type=1
left_child=-1
right_child=-2
leaf_value=0.020940393740951059 -0.0053792934509348557
leaf_weight=76.365863993763924 85.059552878141403
leaf_count=166 192
internal_value=0.00679939
internal_weight=161.425
internal_count=358
cat_boundaries=0 1
cat_threshold=1
is_linear=0
shrinkage=0.045426


Tree=143
num_leaves=3
num_cat=0
split_feature=7 7
split_gain=8.7158 7.67254
threshold=58.500000000000007 33.500000000000007
decision_type=2 2
left_child=1 -1
right_child=-2 -3
leaf_value=0.0063803756801780378 0.014642276780841951 -0.020893101822803992
leaf_weight=40.7546561434865 73.863949321210384 40.688822783529758
leaf_count=121 157 80
internal_value=0.00316114 -0.00670345
internal_weight=155.307 81.4435
internal_count=358 201
is_linear=0
shrinkage=0.045426


Tree=144
num_leaves=3
num_cat=0
split_feature=6 8
split_gain=15.7516 2.00541
threshold=79.500000000000014 67.500000000000014
decision_type=2 2
left_child=1 -1
right_child=-2 -3
leaf_value=-0.016815364877698791 0.018246733798984859 -0.0031230202503811227
leaf_weight=69.431774720549583 51.829790979623795 46.093934923410416
leaf_count=165 87 106
internal_value=-0.00218497 -0.0117571
internal_weight=167.356 115.526
internal_count=358 271
is_linear=0
shrinkage=0.045426


Tree=145
num_leaves=2
num_cat=0
split_feature=8
split_gain=14.8761
threshold=58.500000000000007
decision_type=2
left_child=-1
right_child=-2
leaf_value=-0.014759695444704868 0.012328085572774004
leaf_weight=100.50036599487066 70.174805827438831
leaf_count=190 168
internal_value=-0.00335523
internal_weight=170.675
internal_count=358
is_linear=0
shrinkage=0.045426


Tree=146
num_leaves=3
num_cat=0
split_feature=3 8
split_gain=21.2492 2.99522
threshold=5.5000000000000009 68.500000000000014
decision_type=2 2
left_child=-1 -2
right_child=1 -3
leaf_value=-0.023773812515468565 0.017214955898418004 0.00049391392727162517
leaf_weight=59.15871949493885 57.415960639715195 45.391094170510769
leaf_count=135 134 89
internal_value=-0.0018858 0.0102861
internal_weight=161.966 102.807
internal_count=358 223
is_linear=0
shrinkage=0.045426


Tree=147
num_leaves=3
num_cat=1
split_feature=2 3
split_gain=17.4332 8.2188
threshold=0 8.5000000000000018
decision_type=1 2
left_child=-1 -2
right_child=1 -3
leaf_value=0.015856906533791196 -0.025927883975710418 0
leaf_weight=64.680598385632038 53.325540170073509 50.185222417116165
leaf_count=136 126 96
internal_value=-0.00101724 -0.0123466
internal_weight=168.191 103.511
internal_count=358 222
cat_boundaries=0 1
cat_threshold=12
is_linear=0
shrinkage=0.045426


Tree=148
num_leaves=3
num_cat=0
split_feature=7 7
split_gain=19.0456 4.27913
threshold=37.500000000000007 69.500000000000014
decision_type=2 2
left_child=-1 -2
right_child=1 -3
leaf_value=-0.021373124611273872 0.0012900410970766085 0.020139027266151154
leaf_weight=54.563337817788124 54.101906806230545 56.672235764563084
leaf_count=142 97 119
internal_value=0.000271522 0.0113583
internal_weight=165.337 110.774
internal_count=358 216
is_linear=0
shrinkage=0.045426


Tree=149
num_leaves=3
num_cat=1
split_feature=2 5
split_gain=34.2519 2.66702
threshold=0 24.15580944001071
decision_type=1 2
left_child=-1 -2
right_child=1 -3
leaf_value=0.027061930622938636 -0.0069435306897728619 -0.022844868489839534
leaf_weight=57.618640579283237 59.508321158587933 49.365281172096729
leaf_count=132 114 112
internal_value=0.00118594 -0.0133679
internal_weight=166.492 108.874
internal_count=358 226
cat_boundaries=0 1
cat_threshold=12
is_linear=0
shrinkage=0.045426


Tree=150
num_leaves=2
num_cat=0
split_feature=3
split_gain=8.433
threshold=7.5000000000000009
decision_type=2
left_child=-1
right_child=-2
leaf_value=-0.011469497677742782 0.0091657886476633026
leaf_weight=75.593662820756435 88.351653255522251
leaf_count=175 183
internal_value=-7.4121e-05
internal_weight=163.945
internal_count=358
is_linear=0
shrinkage=0.045426


Tree=151
num_leaves=3
num_cat=1
split_feature=6 9
split_gain=25.681 7.09421
threshold=72.500000000000014 0
decision_type=2 1
left_child=1 -1
right_child=-2 -3
leaf_value=-0.028713800015626924 0.023417248550213682 -0.0054651351203360765
leaf_weight=49.204379253089428 49.494790814816952 74.150301583111286
leaf_count=82 106 170
internal_value=-0.00381953 -0.0151325
internal_weight=172.849 123.355
internal_count=358 252
cat_boundaries=0 1
cat_threshold=2
is_linear=0
shrinkage=0.045426


Tree=152
num_leaves=3
num_cat=0
split_feature=7 7
split_gain=29.2731 6.27778
threshold=38.500000000000007 72.500000000000014
decision_type=2 2
left_child=-1 -2
right_child=1 -3
leaf_value=-0.021531217763843223 0.032839854646645072 0.0093249217015634583
leaf_weight=46.917159661650658 52.060355268418789 55.709018751978874
leaf_count=139 106 113
internal_value=0.00789378 0.0211381
internal_weight=154.687 107.769
internal_count=358 219
is_linear=0
shrinkage=0.045426


Tree=153
num_leaves=3
num_cat=0
split_feature=4 7
split_gain=19.3668 13.0207
threshold=3.5000000000000004 52.500000000000007
decision_type=2 2
left_child=1 -1
right_child=-2 -3
leaf_value=-0.036095471032603743 0.01235624262572519 -0.0028660902058875925
leaf_weight=49.87041025608778 62.745989896357059 53.779732741415501
leaf_count=112 140 106
internal_value=-0.00710447 -0.0193238
internal_weight=166.396 103.65
internal_count=358 218
is_linear=0
shrinkage=0.045426


Tree=154
num_leaves=3
num_cat=0
split_feature=5 3
split_gain=7.6788 1.02362
threshold=33.501633039627571 7.5000000000000009
decision_type=2 2
left_child=1 -1
right_child=-2 -3
leaf_value=0 -0.014878445381758041 0.0096639955332533823
leaf_weight=47.790022358298302 64.560497358441353 50.0433035120368
leaf_count=111 140 107
internal_value=-0.00255335 0.00512788
internal_weight=162.394 97.8333
internal_count=358 218
is_linear=0
shrinkage=0.045426


Tree=155
num_leaves=3
num_cat=0
split_feature=8 6
split_gain=16.4266 10.2315
threshold=73.500000000000014 58.500000000000007
decision_type=2 2
left_child=1 -1
right_child=-2 -3
leaf_value=-0.021975193709116665 0.023767701817868168 0.0047933785140826446
leaf_weight=56.162045784294605 47.002998650074005 57.243493936955929
leaf_count=128 114 116
internal_value=0.000986842 -0.008076
internal_weight=160.409 113.406
internal_count=358 244
is_linear=0
shrinkage=0.045426


Tree=156
num_leaves=3
num_cat=0
split_feature=6 0
split_gain=17.1323 14.9711
threshold=37.500000000000007 33.500000000000007
decision_type=2 2
left_child=-1 -2
right_child=1 -3
leaf_value=-0.016452171469946361 -0.0032334776172237858 0.029792670523872068
leaf_weight=60.826647840440273 52.23001254349947 56.438823603093624
leaf_count=125 103 130
internal_value=0.00249126 0.013521
internal_weight=169.495 108.669
internal_count=358 233
is_linear=0
shrinkage=0.045426


Tree=157
num_leaves=3
num_cat=0
split_feature=5 5
split_gain=6.06728 10.504
threshold=37.801941801457453 16.749513554651219
decision_type=2 2
left_child=1 -1
right_child=-2 -3
leaf_value=-1.3957480784971978e-05 -0.0040579574069232608 0.027276639895078263
leaf_weight=47.565702378749847 43.691182665526867 63.493850886821747
leaf_count=114 101 143
internal_value=0.00946916 0.0151973
internal_weight=154.751 111.06
internal_count=358 257
is_linear=0
shrinkage=0.045426


Tree=158
num_leaves=3
num_cat=0
split_feature=8 5
split_gain=14.9476 3.39643
threshold=67.500000000000014 26.470360409159085
decision_type=2 2
left_child=1 -1
right_child=-2 -3
leaf_value=-0.0017299663430478112 0.017075239987542158 -0.020409478710716449
leaf_weight=48.193706266582012 66.786728985607624 43.584516935050488
leaf_count=108 147 103
internal_value=0.00047753 -0.0111155
internal_weight=158.565 91.7782
internal_count=358 211
is_linear=0
shrinkage=0.045426


Tree=159
num_leaves=2
num_cat=0
split_feature=7
split_gain=16.5331
threshold=50.500000000000007
decision_type=2
left_child=-1
right_child=-2
leaf_value=-0.023652787292072604 0.0049220150845721575
leaf_weight=70.215049937367439 98.213300466537476
leaf_count=164 194
internal_value=-0.00673244
internal_weight=168.428
internal_count=358
is_linear=0
shrinkage=0.045426


Tree=160
num_leaves=2
num_cat=0
split_feature=7
split_gain=17.9201
threshold=55.500000000000007
decision_type=2
left_child=-1
right_child=-2
leaf_value=-0.022603429244521373 0.0070583569801681472
leaf_weight=79.705960974097252 85.367119312286377
leaf_count=181 177
internal_value=-0.0069973
internal_weight=165.073
internal_count=358
is_linear=0
shrinkage=0.045426


Tree=161
num_leaves=3
num_cat=0
split_feature=6 6
split_gain=17.1147 4.33623
threshold=70.500000000000014 29.500000000000004
decision_type=2 2
left_child=1 -1
right_child=-2 -3
leaf_value=-0.0084429900973001411 0.0098133765988966167 -0.029604258072470538
leaf_weight=44.981879122555256 62.701677195727825 51.968404568731785
leaf_count=102 125 131
internal_value=-0.00818199 -0.020285
internal_weight=159.652 96.9503
internal_count=358 233
is_linear=0
shrinkage=0.045426


Tree=162
num_leaves=3
num_cat=1
split_feature=6 1
split_gain=4.38004 3.09548
threshold=37.500000000000007 0
decision_type=2 1
left_child=-1 -2
right_child=1 -3
leaf_value=0.0087207244305183094 -0.014358583978794434 0.00013441586166539903
leaf_weight=44.329559020698071 64.320746161043644 46.157653898000717
leaf_count=118 128 112
internal_value=-0.00284451 -0.00790173
internal_weight=154.808 110.478
internal_count=358 240
cat_boundaries=0 1
cat_threshold=1
is_linear=0
shrinkage=0.045426


Tree=163
num_leaves=3
num_cat=1
split_feature=2 7
split_gain=9.28816 1.82405
threshold=0 68.500000000000014
decision_type=1 2
left_child=-1 -2
right_child=1 -3
leaf_value=0.013446891273446639 -0.014466206220558437 -0.0014636326846539139
leaf_weight=53.972238756716251 56.864189155399799 50.8440772742033
leaf_count=131 141 86
internal_value=-0.000229906 -0.0080178
internal_weight=161.681 107.708
internal_count=358 227
cat_boundaries=0 1
cat_threshold=12
is_linear=0
shrinkage=0.045426


Tree=164
num_leaves=3
num_cat=0
split_feature=6 6
split_gain=17.0374 2.11218
threshold=70.500000000000014 37.500000000000007
decision_type=2 2
left_child=1 -1
right_child=-2 -3
leaf_value=-0.020001254287339072 0.01631572554060794 -0.0050503999784728163
leaf_weight=57.506068117916584 60.74666753411293 44.609940387308598
leaf_count=127 124 107
internal_value=-0.00236653 -0.0139328
internal_weight=162.863 102.116
internal_count=358 234
is_linear=0
shrinkage=0.045426


Tree=165
num_leaves=3
num_cat=0
split_feature=4 7
split_gain=12.2628 0.0574841
threshold=3.5000000000000004 57.500000000000007
decision_type=2 2
left_child=1 -1
right_child=-2 -3
leaf_value=0 0.028179282493801 0.0028009062248548202
leaf_weight=42.908428356051445 65.37951385974884 45.492273077368736
leaf_count=108 146 104
internal_value=0.0132391 0.00164468
internal_weight=153.78 88.4007
internal_count=358 212
is_linear=0
shrinkage=0.045426


Tree=166
num_leaves=2
num_cat=1
split_feature=2
split_gain=18.646
threshold=0
decision_type=1
left_child=-1
right_child=-2
leaf_value=0.0087421463825741747 -0.02234163471095264
leaf_weight=53.890257887542248 109.50667368620634
leaf_count=132 226
internal_value=-0.0126451
internal_weight=163.397
internal_count=358
cat_boundaries=0 1
cat_threshold=12
is_linear=0
shrinkage=0.045426


Tree=167
num_leaves=3
num_cat=0
split_feature=7 3
split_gain=14.704 20.048
threshold=32.500000000000007 6.5000000000000009
decision_type=2 2
left_child=-1 -2
right_child=1 -3
leaf_value=-0.017614434195049301 -0.0060530624632030156 0.032125296349540894
leaf_weight=47.839464887976646 55.894164353609085 54.267645671963692
leaf_count=115 114 129
internal_value=0.00298998 0.0123625
internal_weight=158.001 110.162
internal_count=358 243
is_linear=0
shrinkage=0.045426


Tree=168
num_leaves=2
num_cat=0
split_feature=3
split_gain=16.1866
threshold=7.5000000000000009
decision_type=2
left_child=-1
right_child=-2
leaf_value=-0.015245806506971061 0.014222699053270364
leaf_weight=76.940063692629337 76.410561203956604
leaf_count=186 172
internal_value=-0.000267023
internal_weight=153.351
internal_count=358
is_linear=0
shrinkage=0.045426


Tree=169
num_leaves=3
num_cat=1
split_feature=8 2
split_gain=8.34807 4.19741
threshold=28.500000000000004 0
decision_type=2 1
left_child=-1 -2
right_child=1 -3
leaf_value=-0.020581122809924253 0.011889532126450539 -0.0046610309735867581
leaf_weight=47.872296348214149 41.508123628795147 68.956321083009243
leaf_count=84 107 167
internal_value=-0.00468817 0.00180928
internal_weight=158.337 110.464
internal_count=358 274
cat_boundaries=0 1
cat_threshold=12
is_linear=0
shrinkage=0.045426


Tree=170
num_leaves=3
num_cat=0
split_feature=3 3
split_gain=11.3842 3.02254
threshold=5.5000000000000009 10.500000000000002
decision_type=2 2
left_child=-1 -2
right_child=1 -3
leaf_value=-0.026160710915432851 0.0075433336750936096 -0.0076162239511612592
leaf_weight=52.040219403803349 52.029480673372746 56.156676784157753
leaf_count=135 110 113
internal_value=-0.00873471 0
internal_weight=160.226 108.186
internal_count=358 223
is_linear=0
shrinkage=0.045426


Tree=171
num_leaves=3
num_cat=0
split_feature=3 0
split_gain=14.3413 6.1125
threshold=5.5000000000000009 35.500000000000007
decision_type=2 2
left_child=-1 -2
right_child=1 -3
leaf_value=-0.020590982136390375 -0.0012672705795557459 0.01967209101541241
leaf_weight=53.496796406805515 58.146262750029564 50.403362527489662
leaf_count=135 108 115
internal_value=-0.00113469 0.0080529
internal_weight=162.046 108.55
internal_count=358 223
is_linear=0
shrinkage=0.045426


Tree=172
num_leaves=3
num_cat=1
split_feature=9 0
split_gain=20.7312 5.05459
threshold=0 36.500000000000007
decision_type=1 2
left_child=-1 -2
right_child=1 -3
leaf_value=0.020828349176216777 -0.0030936086118530525 -0.024191242630406784
leaf_weight=50.683776140213013 51.247355423867702 54.081108063459396
leaf_count=147 103 108
internal_value=-0.00263954 -0.0143778
internal_weight=156.012 105.328
internal_count=358 211
cat_boundaries=0 1
cat_threshold=1
is_linear=0
shrinkage=0.045426


Tree=173
num_leaves=3
num_cat=1
split_feature=9 8
split_gain=16.6101 5.09798
threshold=0 58.500000000000007
decision_type=1 2
left_child=-1 -2
right_child=1 -3
leaf_value=0.022033338531924629 -0.018966804843166894 0.0015857922395120841
leaf_weight=56.630651228129864 49.942988403141499 42.120644994080067
leaf_count=151 104 103
internal_value=0.00247258 -0.00908514
internal_weight=148.694 92.0636
internal_count=358 207
cat_boundaries=0 1
cat_threshold=1
is_linear=0
shrinkage=0.045426


Tree=174
num_leaves=3
num_cat=0
split_feature=3 0
split_gain=8.31884 1.12468
threshold=5.5000000000000009 36.500000000000007
decision_type=2 2
left_child=-1 -2
right_child=1 -3
leaf_value=-0.012516145876655222 0.0035781515035761807 0.014912982463313197
leaf_weight=55.82097864896059 52.670246101915836 45.867865927517414
leaf_count=137 114 107
internal_value=0.0011313 0.00933071
internal_weight=154.359 98.5381
internal_count=358 221
is_linear=0
shrinkage=0.045426


Tree=175
num_leaves=3
num_cat=0
split_feature=6 6
split_gain=7.32797 19.4324
threshold=70.500000000000014 36.500000000000007
decision_type=2 2
left_child=1 -1
right_child=-2 -3
leaf_value=0.012682330822702046 0.010670558436015911 -0.02816861684514026
leaf_weight=42.546161264181137 61.679901361465454 52.160676822066307
leaf_count=119 127 112
internal_value=-0.00115933 -0.00934779
internal_weight=156.387 94.7068
internal_count=358 231
is_linear=0
shrinkage=0.045426


Tree=176
num_leaves=3
num_cat=1
split_feature=9 6
split_gain=31.7977 0.809247
threshold=0 71.500000000000014
decision_type=1 2
left_child=-1 -2
right_child=1 -3
leaf_value=0.016340337305820189 -0.029264093616023296 -0.017414078887191323
leaf_weight=63.292001806199551 54.876759693026543 55.819144479930401
leaf_count=157 106 95
internal_value=-0.00889311 -0.0237333
internal_weight=173.988 110.696
internal_count=358 201
cat_boundaries=0 1
cat_threshold=1
is_linear=0
shrinkage=0.045426


Tree=177
num_leaves=2
num_cat=0
split_feature=0
split_gain=7.8761
threshold=34.500000000000007
decision_type=2
left_child=-1
right_child=-2
leaf_value=0.012118835493486425 -0.0074558056847153654
leaf_weight=82.545787908136845 84.872730284929276
leaf_count=170 188
internal_value=0.00192685
internal_weight=167.419
internal_count=358
is_linear=0
shrinkage=0.045426


Tree=178
num_leaves=2
num_cat=0
split_feature=7
split_gain=11.1691
threshold=50.500000000000007
decision_type=2
left_child=-1
right_child=-2
leaf_value=-0.014017857624546864 0.010321749271991698
leaf_weight=67.945479214191437 90.541096396744251
leaf_count=169 189
internal_value=0
internal_weight=158.487
internal_count=358
is_linear=0
shrinkage=0.045426


Tree=179
num_leaves=3
num_cat=0
split_feature=8 5
split_gain=13.4193 5.67721
threshold=66.500000000000014 30.063412430360916
decision_type=2 2
left_child=1 -1
right_child=-2 -3
leaf_value=-0.01149523159641389 0.027096137850489959 0.010844700189575479
leaf_weight=51.019238844513893 54.156751528382301 42.517734251916409
leaf_count=121 141 96
internal_value=0.00910616 -0.000854487
internal_weight=147.694 93.537
internal_count=358 217
is_linear=0
shrinkage=0.045426


Tree=180
num_leaves=3
num_cat=0
split_feature=7 0
split_gain=11.3035 6.71105
threshold=43.500000000000007 33.500000000000007
decision_type=2 2
left_child=-1 -2
right_child=1 -3
leaf_value=-0.018233958748097769 -0.0034426371601551623 0.020434521675708008
leaf_weight=55.118651986122131 47.389383584260941 44.569010719656944
leaf_count=151 92 115
internal_value=-0.00174973 0.00765261
internal_weight=147.077 91.9584
internal_count=358 207
is_linear=0
shrinkage=0.045426


Tree=181
num_leaves=3
num_cat=0
split_feature=5 5
split_gain=14.0678 13.0913
threshold=34.194394293417623 15.276853001231617
decision_type=2 2
left_child=1 -1
right_child=-2 -3
leaf_value=-0.010493938330937563 -0.023526593047487072 0.022075234240696674
leaf_weight=55.863088041543961 61.728335231542587 45.421013787388802
leaf_count=115 128 115
internal_value=-0.0063598 0.00367617
internal_weight=163.012 101.284
internal_count=358 230
is_linear=0
shrinkage=0.045426


Tree=182
num_leaves=2
num_cat=1
split_feature=9
split_gain=15.9122
threshold=0
decision_type=1
left_child=-1
right_child=-2
leaf_value=0.0173356940218093 -0.010883949770231268
leaf_weight=76.15497675538063 88.429411254823208
leaf_count=170 188
internal_value=0.00190216
internal_weight=164.584
internal_count=358
cat_boundaries=0 1
cat_threshold=1
is_linear=0
shrinkage=0.045426


Tree=183
num_leaves=2
num_cat=1
split_feature=9
split_gain=18.374
threshold=0
decision_type=1
left_child=-1
right_child=-2
leaf_value=0.01691088927679555 -0.013845651103526563
leaf_weight=73.262938231229782 88.076527148485184
leaf_count=162 196
internal_value=0
internal_weight=161.339
internal_count=358
cat_boundaries=0 1
cat_threshold=1
is_linear=0
shrinkage=0.045426


Tree=184
num_leaves=3
num_cat=0
split_feature=3 7
split_gain=13.3946 12.9542
threshold=5.5000000000000009 54.500000000000007
decision_type=2 2
left_child=-1 -2
right_child=1 -3
leaf_value=-0.023675688045530042 -0.011434436294969267 0.020279391052485361
leaf_weight=52.365963198244572 51.495853208005428 52.91855289041996
leaf_count=137 113 108
internal_value=-0.00482921 0.00421083
internal_weight=156.78 104.414
internal_count=358 221
is_linear=0
shrinkage=0.045426


Tree=185
num_leaves=2
num_cat=0
split_feature=6
split_gain=21.4846
threshold=58.500000000000007
decision_type=2
left_child=-1
right_child=-2
leaf_value=-0.015305963007899732 0.018766077714939846
leaf_weight=80.894914083182812 71.880225881934166
leaf_count=181 177
internal_value=0.000430769
internal_weight=152.775
internal_count=358
is_linear=0
shrinkage=0.045426


Tree=186
num_leaves=3
num_cat=1
split_feature=8 2
split_gain=11.9534 5.92479
threshold=38.500000000000007 0
decision_type=2 1
left_child=-1 -2
right_child=1 -3
leaf_value=-0.022500362246086498 0.014475577535397376 -0.0057896581814534109
leaf_weight=46.182062260806561 52.090913958847523 47.320246390998363
leaf_count=118 127 113
internal_value=-0.00325512 0.00525172
internal_weight=145.593 99.4112
internal_count=358 240
cat_boundaries=0 1
cat_threshold=10
is_linear=0
shrinkage=0.045426


Tree=187
num_leaves=3
num_cat=1
split_feature=2 6
split_gain=18.3679 1.85759
threshold=0 65.500000000000014
decision_type=1 2
left_child=-1 -2
right_child=1 -3
leaf_value=0.016395454476499132 -0.022468633021152009 -0.0072865790131040617
leaf_weight=51.822762206196785 53.108130216598511 40.840564638376236
leaf_count=132 133 93
internal_value=-0.00328535 -0.014803
internal_weight=145.771 93.9487
internal_count=358 226
cat_boundaries=0 1
cat_threshold=12
is_linear=0
shrinkage=0.045426


Tree=188
num_leaves=2
num_cat=1
split_feature=9
split_gain=24.4183
threshold=0
decision_type=1
left_child=-1
right_child=-2
leaf_value=0.021350405934509278 -0.015927395371624322
leaf_weight=60.151200957596302 90.387936417013407
leaf_count=159 199
internal_value=-0.000723723
internal_weight=150.539
internal_count=358
cat_boundaries=0 1
cat_threshold=1
is_linear=0
shrinkage=0.045426


Tree=189
num_leaves=3
num_cat=1
split_feature=8 9
split_gain=20.2548 13.4737
threshold=44.500000000000007 0
decision_type=2 1
left_child=-1 -2
right_child=1 -3
leaf_value=0.029785199559900829 -0.021374619355983365 0.010824680706816423
leaf_weight=50.626513224095106 52.751143127679825 52.408663861453533
leaf_count=123 102 133
internal_value=0.00609724 -0.00490432
internal_weight=155.786 105.16
internal_count=358 235
cat_boundaries=0 1
cat_threshold=2
is_linear=0
shrinkage=0.045426


Tree=190
num_leaves=2
num_cat=1
split_feature=1
split_gain=13.0932
threshold=0
decision_type=1
left_child=-1
right_child=-2
leaf_value=0.019969269227383186 -0.0064486998034862823
leaf_weight=75.460189506411552 75.667448341846466
leaf_count=173 185
internal_value=0.00644933
internal_weight=151.128
internal_count=358
cat_boundaries=0 1
cat_threshold=1
is_linear=0
shrinkage=0.045426


Tree=191
num_leaves=2
num_cat=0
split_feature=8
split_gain=14.3019
threshold=58.500000000000007
decision_type=2
left_child=-1
right_child=-2
leaf_value=-0.0053965306330533485 0.022552218660615346
leaf_weight=74.338968448340893 72.684295050799847
leaf_count=185 173
internal_value=0.00812177
internal_weight=147.023
internal_count=358
is_linear=0
shrinkage=0.045426


Tree=192
num_leaves=3
num_cat=1
split_feature=9 0
split_gain=9.66247 0.490709
threshold=0 33.500000000000007
decision_type=1 2
left_child=-1 -2
right_child=1 -3
leaf_value=0.009284905246242578 -0.018709793664014929 -0.0085772500406517786
leaf_weight=57.585142470896244 45.671854518353939 44.245214819908142
leaf_count=155 92 111
internal_value=-0.00475608 -0.0142531
internal_weight=147.502 89.9171
internal_count=358 203
cat_boundaries=0 1
cat_threshold=1
is_linear=0
shrinkage=0.045426


Tree=193
num_leaves=3
num_cat=0
split_feature=7 4
split_gain=12.8186 4.96171
threshold=63.500000000000007 3.5000000000000004
decision_type=2 2
left_child=1 -1
right_child=-2 -3
leaf_value=0.0040037350243677236 0.021864159908566196 -0.017414138125984586
leaf_weight=45.181955710053444 58.495275624096394 39.624795265495777
leaf_count=132 140 86
internal_value=0.00537553 -0.0054833
internal_weight=143.302 84.8068
internal_count=358 218
is_linear=0
shrinkage=0.045426


Tree=194
num_leaves=3
num_cat=1
split_feature=3 9
split_gain=11.7996 13.216
threshold=5.5000000000000009 0
decision_type=2 1
left_child=-1 -2
right_child=1 -3
leaf_value=-0.019734974340103014 -0.007711727846026542 0.022492710075602149
leaf_weight=44.987498193979263 55.838723167777061 60.52338282763958
leaf_count=126 105 127
internal_value=0 0.0076183
internal_weight=161.35 116.362
internal_count=358 232
cat_boundaries=0 1
cat_threshold=2
is_linear=0
shrinkage=0.045426


Tree=195
num_leaves=3
num_cat=2
split_feature=2 1
split_gain=9.10632 7.05476
threshold=0 1
decision_type=1 1
left_child=-1 -2
right_child=1 -3
leaf_value=0.010485483386024229 0 -0.023752411602021642
leaf_weight=47.972905606031418 49.498307853937149 55.495909959077835
leaf_count=128 107 123
internal_value=-0.00441395 -0.0115575
internal_weight=152.967 104.994
internal_count=358 230
cat_boundaries=0 1 2
cat_threshold=12 1
is_linear=0
shrinkage=0.045426


Tree=196
num_leaves=3
num_cat=1
split_feature=9 8
split_gain=11.8599 13.2969
threshold=0 60.500000000000007
decision_type=1 2
left_child=-1 -2
right_child=1 -3
leaf_value=0.014746191767663128 -0.027824703452968193 0.0059859321740397473
leaf_weight=62.953906513750553 47.06003437936306 45.221847385168076
leaf_count=156 100 102
internal_value=-0.000133384 -0.0107837
internal_weight=155.236 92.2819
internal_count=358 202
cat_boundaries=0 1
cat_threshold=1
is_linear=0
shrinkage=0.045426


Tree=197
num_leaves=3
num_cat=1
split_feature=9 5
split_gain=15.2764 2.12082
threshold=0 28.104256244111067
decision_type=1 2
left_child=-1 -2
right_child=1 -3
leaf_value=0.017193790002800323 -0.019008388395905209 -0.003470396174223787
leaf_weight=57.394115768373013 51.015335451811552 41.172859705984592
leaf_count=155 114 89
internal_value=-0.000845807 -0.0125794
internal_weight=149.582 92.1882
internal_count=358 203
cat_boundaries=0 1
cat_threshold=1
is_linear=0
shrinkage=0.045426


Tree=198
num_leaves=3
num_cat=0
split_feature=8 0
split_gain=4.82769 4.31582
threshold=74.500000000000014 38.500000000000007
decision_type=2 2
left_child=1 -1
right_child=-2 -3
leaf_value=0.017134819015248767 -0.0098300606046723416 -0.0010825915851709177
leaf_weight=48.922632452100515 48.628810383379459 49.75059387087822
leaf_count=143 109 106
internal_value=0.00146863 0.00750365
internal_weight=147.302 98.6732
internal_count=358 249
is_linear=0
shrinkage=0.045426


Tree=199
num_leaves=3
num_cat=1
split_feature=6 9
split_gain=43.1569 5.36397
threshold=70.500000000000014 0
decision_type=2 1
left_child=1 -1
right_child=-2 -3
leaf_value=-0.033422423946088929 0.02908291728504292 -0.010870570641322696
leaf_weight=50.677352912724018 49.143436811864376 52.567645967006683
leaf_count=88 120 150
internal_value=-0.00549631 -0.0224151
internal_weight=152.388 103.245
internal_count=358 238
cat_boundaries=0 1
cat_threshold=2
is_linear=0
shrinkage=0.045426


Tree=200
num_leaves=2
num_cat=1
split_feature=9
split_gain=12.1732
threshold=0
decision_type=1
left_child=-1
right_child=-2
leaf_value=0.020299480919581243 -0.0055228082806729169
leaf_weight=64.823552511632442 85.3894760645926
leaf_count=161 197
internal_value=0.00532865
internal_weight=150.213
internal_count=358
cat_boundaries=0 1
cat_threshold=1
is_linear=0
shrinkage=0.045426


Tree=201
num_leaves=3
num_cat=1
split_feature=9 8
split_gain=7.16559 10.702
threshold=0 58.500000000000007
decision_type=1 2
left_child=-1 -2
right_child=1 -3
